Lev0	Jaro	Jaro_Winkler	Ratio	Sorensen	Jaccard	Lev1	Lev2	Dice2	Dice3	Dice4	CosWords	Cos2	wLev0	wJaro	wJaro_Winkler	wRatio	wSorensen	wJaccard	wLev1	wLev2	wDice2	wDice3	wDice4	wCosWords	wCos2	intercept	AUC
1	1	1	1	1	1	1	1	1	1	1	1	1	-1.96431805493	1.70616645684	-1.08302319845	0.533493519517	-0.729200280259	-0.608822709499	0.0119442505514	-0.11503872233	2.20774415531	1.12566774765	-0.247617349776	1.00125204962	0.464019245339	-2.20851296314	0.966940448496
0	1	1	1	1	1	1	1	1	1	1	1	1	0.0	1.75666470884	-1.0074689387	0.198087819698	-0.574589414007	-0.58183709987	-1.07382650048	-1.22576260945	2.21205530911	1.13707961375	-0.21412658077	1.04137971399	0.545831229862	-1.96804158365	0.94836917818
0	0	1	1	1	1	1	1	1	1	1	1	1	0.0	0.0	-0.459058496754	0.507397646929	-0.4255707472	-0.479071457377	-0.96429766069	-1.11219030407	2.39645669842	1.2578137238	-0.293711446613	1.02355592887	0.582552693517	-1.64602501145	0.941366377059
0	0	0	1	1	1	1	1	1	1	1	1	1	0.0	0.0	0.0	0.455791521477	-0.554674070888	-0.553977604944	-0.966354935474	-1.10689590035	2.38407854635	1.23250672097	-0.293822653427	1.00072307378	0.591905997507	-1.9409665613	0.947664941683
0	0	1	0	1	1	1	1	1	1	1	1	1	0.0	0.0	-0.431872003457	0.0	-0.393999836373	-0.438365519565	-0.858884857967	-0.988330496983	2.48622093612	1.29527026154	-0.308397178752	1.01143830667	0.597656169881	-1.5533798875	0.945575970501
0	0	1	1	0	1	1	1	1	1	1	1	1	0.0	0.0	-0.528416238957	0.477327208743	0.0	-0.258459186494	-0.947965104	-1.09677883691	2.4067446051	1.25082727337	-0.287067559128	1.0274368252	0.578783619298	-1.81308362253	0.945876655747
0	0	1	1	1	0	1	1	1	1	1	1	1	0.0	0.0	-0.534666190914	0.430227355963	-0.00161327385518	0.0	-0.991685833518	-1.1577423611	2.36034200866	1.26846389799	-0.300968776558	1.02804455193	0.56700723461	-1.84941047264	0.941532545221
0	0	1	1	1	1	0	1	1	1	1	1	1	0.0	0.0	-0.46203425226	0.262979693844	-0.386642604161	-0.514665101812	0.0	-1.71589664051	2.25798542374	1.22423962877	-0.262867622679	1.0413214813	0.599291689142	-1.60126082371	0.945773789742
0	0	1	1	1	1	1	0	1	1	1	1	1	0.0	0.0	-0.454889897427	0.189025162361	-0.38525857609	-0.546105162464	-1.63442222445	0.0	2.26266681601	1.23648744765	-0.243814672526	1.0441526053	0.611294459661	-1.63584368434	0.940812483185
0	0	1	1	1	1	1	1	0	1	1	1	1	0.0	0.0	-0.41228652983	1.06019923623	-0.500093131896	-0.370253712533	-0.589929815025	-0.78095666383	0.0	2.09071804082	-0.443428854255	1.17481249545	0.815628952082	-1.83169378241	0.933683077751
0	0	1	1	1	1	1	1	1	0	1	1	1	0.0	0.0	-0.421953208576	0.613301064177	-0.40426651016	-0.49696541407	-0.921714586568	-1.08546542114	2.75620113542	0.0	0.334948206803	0.996762647195	0.700428672464	-1.64664034913	0.936769057906
0	0	1	1	1	1	1	1	1	1	0	1	1	0.0	0.0	-0.458931247792	0.53625918571	-0.411462119862	-0.486752026976	-0.937228846506	-1.07221544977	2.44837549315	0.806869867278	0.0	1.01056268752	0.610380755886	-1.66277594083	0.940116159458
0	0	1	1	1	1	1	1	1	1	1	0	1	0.0	0.0	-0.0711617838999	0.136916415158	-0.548062751967	-0.581867898067	-1.19640689971	-1.35252004657	3.12785483082	0.970646726745	-0.0919307181086	0.0	1.58572315049	-1.89759053425	0.94028232762
0	0	1	1	1	1	1	1	1	1	1	1	0	0.0	0.0	-0.47794375708	0.578900748392	-0.399832171289	-0.450376269691	-0.992642436946	-1.15762201574	2.59626353391	1.48026267691	-0.37660792572	1.20708271385	0.0	-1.61575183657	0.941429679216
0	1	0	1	1	1	1	1	1	1	1	1	1	0.0	1.26203467067	0.0	0.193603173852	-0.773059887269	-0.685890720591	-1.04813800453	-1.18953370484	2.24274125633	1.12531991724	-0.236140950995	0.994546753062	0.566333060976	-2.42687825557	0.955917960404
0	1	0	0	1	1	1	1	1	1	1	1	1	0.0	1.2924638837	0.0	0.0	-0.763484049022	-0.673117743198	-1.01032670927	-1.14556242772	2.27280843742	1.13786424552	-0.240503807034	0.990358575323	0.571505335516	-2.39808120559	0.956994097074
0	1	0	1	0	1	1	1	1	1	1	1	1	0.0	1.13677388071	0.0	0.150051480033	0.0	-0.285793913514	-1.00989110435	-1.15196509833	2.2736592221	1.115412592	-0.229336436639	0.995892143186	0.563803882707	-2.77046787853	0.961140388359
0	1	0	1	1	0	1	1	1	1	1	1	1	0.0	1.1424683795	0.0	0.0959862105285	-0.163957959276	0.0	-1.07821102208	-1.24572678646	2.19849698315	1.14667922243	-0.254208051944	0.996197434603	0.554826382283	-2.75052718406	0.95729478232
0	1	0	1	1	1	0	1	1	1	1	1	1	0.0	1.19711878113	0.0	-0.0571708636948	-0.718545967745	-0.717091111851	0.0	-1.83923396691	2.10100562145	1.09321577835	-0.205018835624	1.01455239033	0.583780489499	-2.3562766309	0.959098893795
0	1	0	1	1	1	1	0	1	1	1	1	1	0.0	1.19112103849	0.0	-0.131394744491	-0.714752634027	-0.747035444589	-1.7562597255	0.0	2.10716321087	1.10723543349	-0.185703654739	1.01738594143	0.59776593323	-2.38582693085	0.955284938834
0	1	0	1	1	1	1	1	0	1	1	1	1	0.0	1.52595426111	0.0	0.645580426161	-0.873308103517	-0.604095044882	-0.715279450651	-0.899448449234	0.0	1.87118999774	-0.356657498683	1.13811851352	0.769772846744	-2.67180798166	0.953235531501
0	1	0	1	1	1	1	1	1	0	1	1	1	0.0	1.34823202282	0.0	0.279084194414	-0.757246776938	-0.708309908603	-1.01414497386	-1.17259795579	2.55400980651	0.0	0.327137267192	0.971721824535	0.669698172604	-2.44228015809	0.954549051259
0	1	0	1	1	1	1	1	1	1	0	1	1	0.0	1.29074219522	0.0	0.212574614151	-0.765830640811	-0.696330625719	-1.02727485707	-1.1589374325	2.27919676682	0.762388735053	0.0	0.984144716878	0.588567674072	-2.45226942736	0.955672664546
0	1	0	1	1	1	1	1	1	1	1	0	1	0.0	1.3170737984	0.0	-0.140074735891	-0.794612835638	-0.728104466322	-1.27951448459	-1.4346516225	2.96658385385	0.854283789455	-0.0354031333662	0.0	1.55017284587	-2.44548046526	0.949666872399
0	1	0	1	1	1	1	1	1	1	1	1	0	0.0	1.2931631699	0.0	0.259512188759	-0.755897441209	-0.667708431009	-1.07400808321	-1.23452294218	2.42431647912	1.34302189408	-0.315924314046	1.17366402848	0.0	-2.42558158397	0.956250296729
0	1	1	0	1	1	1	1	1	1	1	1	1	0.0	1.78803804035	-1.00705197621	0.0	-0.565210255796	-0.566656554522	-1.03603706583	-1.18188760992	2.24340062393	1.14893514701	-0.218155254835	1.03699353832	0.550200918076	-1.93853488146	0.949722261786
0	1	1	0	0	1	1	1	1	1	1	1	1	0.0	1.73160319567	-1.08229236433	0.0	0.0	-0.274115121526	-1.01749117437	-1.16533091133	2.25878541027	1.14183784884	-0.211313866538	1.04232414059	0.544121068077	-2.15445212014	0.953900204149
0	1	1	0	1	0	1	1	1	1	1	1	1	0.0	1.70991498723	-1.07589614927	0.0	-0.0529424658155	0.0	-1.07827014765	-1.24854537244	2.19237024916	1.15999057065	-0.230177105563	1.04295992833	0.54003953244	-2.1845021975	0.949374099922
0	1	1	0	1	1	0	1	1	1	1	1	1	0.0	1.67193669225	-0.989265895397	0.0	-0.526832769904	-0.61711477727	0.0	-1.91500198262	2.05709270596	1.10197580867	-0.180840625846	1.06238568856	0.558730102779	-1.91296386635	0.952206871449
0	1	1	0	1	1	1	0	1	1	1	1	1	0.0	1.64608113092	-0.978554841885	0.0	-0.528124863606	-0.654594099802	-1.8548389163	0.0	2.04934714954	1.1118700141	-0.156199222043	1.06762236711	0.567869608529	-1.96231101499	0.945995347291
0	1	1	0	1	1	1	1	0	1	1	1	1	0.0	2.15612800407	-1.04912153558	0.0	-0.644922915329	-0.444754448247	-0.605596110435	-0.780426306878	0.0	1.96596758774	-0.357631469035	1.17619001563	0.769531192175	-2.10853575146	0.950402759974
0	1	1	0	1	1	1	1	1	0	1	1	1	0.0	1.88803973797	-0.999627949448	0.0	-0.54862396532	-0.580704554748	-0.987534916798	-1.14669541107	2.58039069283	0.0	0.357094044565	1.01094615263	0.653047286204	-1.94186366902	0.947380081976
0	1	1	0	1	1	1	1	1	1	0	1	1	0.0	1.82054727977	-1.01644936398	0.0	-0.556828789461	-0.575596816338	-1.01403194987	-1.14880734062	2.27962718879	0.813917953839	0.0	1.02711518923	0.573029999597	-1.95366415598	0.949524442545
0	1	1	0	1	1	1	1	1	1	1	0	1	0.0	1.5746504377	-0.56550997408	0.0	-0.694693683343	-0.672488336865	-1.33268859113	-1.5023350073	2.95502173369	0.837631298145	-0.0118362274138	0.0	1.55894987574	-2.20887711864	0.944697653073
0	1	1	0	1	1	1	1	1	1	1	1	0	0.0	1.83765453133	-1.03371837397	0.0	-0.541828793348	-0.543388495436	-1.05108682086	-1.21215365886	2.43638769854	1.36262164517	-0.298275625004	1.21110576824	0.0	-1.91013350867	0.950932915539
0	1	1	1	0	1	1	1	1	1	1	1	1	0.0	1.70445527957	-1.08421396112	0.166517155597	0.0	-0.282700169795	-1.04833663324	-1.2022330695	2.23204907648	1.13123372796	-0.207440058262	1.04621068711	0.54067859934	-2.18194290703	0.952982322873
0	1	1	1	0	0	1	1	1	1	1	1	1	0.0	1.6866717555	-1.08292312016	0.114909320182	0.0	0.0	-1.09465757094	-1.26664667334	2.18199450112	1.1514222403	-0.226206995753	1.0459807852	0.536501554524	-2.22029201778	0.949342448844
0	1	1	1	0	1	0	1	1	1	1	1	1	0.0	1.63632936285	-1.05970635709	-0.0814373651536	0.0	-0.338004945946	0.0	-1.85811783313	2.08935052486	1.10161677054	-0.177177939758	1.06471505448	0.555072438455	-2.1017843005	0.955704315625
0	1	1	1	0	1	1	0	1	1	1	1	1	0.0	1.62569949209	-1.04891878662	-0.159479632618	0.0	-0.369290827731	-1.77056179849	0.0	2.09509232715	1.11567249935	-0.15579579381	1.06783150788	0.566210049166	-2.13659297969	0.951724192502
0	1	1	1	0	1	1	1	0	1	1	1	1	0.0	1.9772152689	-1.13232908933	0.614403323659	0.0	-0.145685714918	-0.716299284617	-0.916331473738	0.0	1.89944658471	-0.335104746195	1.18883825738	0.746495064255	-2.45970638774	0.951154473089
0	1	1	1	0	1	1	1	1	0	1	1	1	0.0	1.78956494493	-1.07405774496	0.249401913301	0.0	-0.306932122085	-1.01799305348	-1.18769096626	2.54984386156	0.0	0.357657698743	1.02196332641	0.639259424082	-2.19287295187	0.950877526152
0	1	1	1	0	1	1	1	1	1	0	1	1	0.0	1.73412789002	-1.09163061322	0.182586382824	0.0	-0.29545491809	-1.031082333	-1.17488554462	2.26352220046	0.811472244986	0.0	1.0369264516	0.56240303074	-2.19643937179	0.952547120543
0	1	1	1	0	1	1	1	1	1	1	0	1	0.0	1.5315434547	-0.652195550481	-0.187123342159	0.0	-0.304247788149	-1.27424495139	-1.4397655049	3.00265819903	0.839519298257	-0.00637812904643	0.0	1.56114636436	-2.44613040516	0.949556093624
0	1	1	1	0	1	1	1	1	1	1	1	0	0.0	1.74768923671	-1.10900227591	0.227289250081	0.0	-0.273203516849	-1.07582844646	-1.24713049749	2.41154388796	1.33449860634	-0.283899834391	1.2177261775	0.0	-2.15489434361	0.953053537799
0	1	1	1	1	0	1	1	1	1	1	1	1	0.0	1.69074941107	-1.0768983844	0.112723077424	-0.0510528219771	0.0	-1.10047258837	-1.27499514489	2.1741449713	1.15309652864	-0.228006193419	1.04543715788	0.537379235229	-2.20473213578	0.948400829258
0	1	1	1	1	0	0	1	1	1	1	1	1	0.0	1.6111498122	-1.06086432602	-0.155531413918	0.0275827231045	0.0	0.0	-1.96390381908	2.02495495067	1.12202666926	-0.196711831272	1.06545437402	0.550842138814	-2.15181334585	0.953077276108
0	1	1	1	1	0	1	0	1	1	1	1	1	0.0	1.59578957858	-1.05370720423	-0.24508987634	0.0593897129384	0.0	-1.86981468904	0.0	2.02568475562	1.13780484403	-0.174910201631	1.06958400535	0.561301468733	-2.20152727959	0.947111047809
0	1	1	1	1	0	1	1	0	1	1	1	1	0.0	1.97603938655	-1.09916429586	0.567495322276	-0.228040404923	0.0	-0.778741736699	-0.993826947282	0.0	1.89680017165	-0.351333688163	1.18300522363	0.735201187749	-2.39920932271	0.945243634177
0	1	1	1	1	0	1	1	1	0	1	1	1	0.0	1.77496243976	-1.07285919024	0.195940873529	-0.0200592756187	0.0	-1.06914570441	-1.26062483421	2.49551264386	0.0	0.348707408188	1.02162254927	0.637998036153	-2.22920758852	0.944713478612
0	1	1	1	1	0	1	1	1	1	0	1	1	0.0	1.720246127	-1.08748734063	0.129475700471	-0.032420460669	0.0	-1.0819520152	-1.24529971135	2.21022772461	0.800474894919	0.0	1.03552807565	0.560517120306	-2.22731999643	0.948068492934
0	1	1	1	1	0	1	1	1	1	1	0	1	0.0	1.53614621625	-0.651368143085	-0.241100261215	-0.109158176284	0.0	-1.33775923345	-1.53066712866	2.92869825979	0.868486845827	-0.0300329595865	0.0	1.54375145797	-2.44647558534	0.945077466015
0	1	1	1	1	0	1	1	1	1	1	1	0	0.0	1.7329273356	-1.10129243342	0.177057102038	-0.0487377769461	0.0	-1.12753213514	-1.3172963388	2.35508964609	1.35626592571	-0.30457455504	1.21597637333	0.0	-2.17795353571	0.94901011252
0	1	1	1	1	1	0	1	1	1	1	1	1	0.0	1.68276051162	-0.989370624111	-0.0585123445753	-0.524591787886	-0.612135179224	0.0	-1.89413489897	2.06815421183	1.10577143096	-0.182306103712	1.06078065824	0.559944134514	-1.90448106312	0.952507556695
0	1	1	1	1	1	0	0	1	1	1	1	1	0.0	1.34203546436	-0.871715200646	-1.30802215872	-0.321629708802	-0.84031075931	0.0	0.0	1.49029591621	1.0251177488	0.0032863809152	1.15271749984	0.669558466103	-1.75914552326	0.95495260251
0	1	1	1	1	1	0	1	0	1	1	1	1	0.0	1.96807736612	-1.03141445998	0.441477365447	-0.633345783789	-0.526098546532	0.0	-1.43149559495	0.0	1.83925538337	-0.309475666314	1.19098896132	0.749870859002	-2.14687842099	0.948519520803
0	1	1	1	1	1	0	1	1	0	1	1	1	0.0	1.76649375153	-0.980975737647	0.0278497898455	-0.514512826359	-0.628745482585	0.0	-1.8609025692	2.3851552362	0.0	0.369742735783	1.03673519943	0.655006835898	-1.92100621324	0.950204940733
0	1	1	1	1	1	0	1	1	1	0	1	1	0.0	1.7096638307	-0.997238253536	-0.0412999131855	-0.519471976343	-0.620319715524	0.0	-1.8597323882	2.09850536948	0.825734124521	0.0	1.05275734261	0.577970743907	-1.9209715418	0.95219895868
0	1	1	1	1	1	0	1	1	1	1	0	1	0.0	1.49975073858	-0.529385712351	-0.470372646385	-0.62962550647	-0.705481500487	0.0	-2.28185297905	2.81396831624	0.80495590672	0.0256685161331	0.0	1.60547591567	-2.11401076725	0.950030859802
0	1	1	1	1	1	0	1	1	1	1	1	0	0.0	1.72555344578	-1.01707449727	-0.00400976128267	-0.502379910318	-0.593124650356	0.0	-1.95129248776	2.24378087843	1.31504963541	-0.256425772703	1.24146915395	0.0	-1.88763258618	0.953393786893
0	1	1	1	1	1	1	0	1	1	1	1	1	0.0	1.67226890869	-0.978924993885	-0.13715001516	-0.522718009768	-0.642143744418	-1.80674803231	0.0	2.0748549286	1.12058543815	-0.160596148035	1.06392768963	0.570352973246	-1.94109374815	0.947285128741
0	1	1	1	1	1	1	0	0	1	1	1	1	0.0	1.95165119594	-1.0203392577	0.361613128931	-0.627448272573	-0.553771926977	-1.33522773496	0.0	0.0	1.84607814167	-0.291702141278	1.19416825752	0.763002969198	-2.16991073297	0.944302014591
0	1	1	1	1	1	1	0	1	0	1	1	1	0.0	1.7525897514	-0.966560073327	-0.0540302626525	-0.512003708511	-0.661684596288	-1.76698651575	0.0	2.39589357282	0.0	0.397165705702	1.03904616363	0.671576782969	-1.95770581857	0.943819335644
0	1	1	1	1	1	1	0	1	1	0	1	1	0.0	1.69633241648	-0.985860197817	-0.118242575675	-0.518775977983	-0.649072830099	-1.77978002232	0.0	2.1015876169	0.873254393803	0.0	1.05682314163	0.585661422883	-1.95548319888	0.946794537024
0	1	1	1	1	1	1	0	1	1	1	0	1	0.0	1.48369574418	-0.510704231629	-0.559309491835	-0.628885335638	-0.746944268816	-2.18466457206	0.0	2.83021867646	0.819494132173	0.0508572810695	0.0	1.62612664993	-2.16168989805	0.944721391381
0	1	1	1	1	1	1	0	1	1	1	1	0	0.0	1.70857971072	-1.00179140338	-0.0869248319617	-0.5020759699	-0.62541300543	-1.85982079107	0.0	2.25764425442	1.3389112699	-0.238321779068	1.24812897632	0.0	-1.92550600225	0.947633290604
0	1	1	1	1	1	1	1	0	1	1	1	1	0.0	2.03757730808	-1.04704012516	0.647190813696	-0.671273041288	-0.495272848446	-0.748950252794	-0.947458247063	0.0	1.89337076182	-0.33886631271	1.18273362986	0.746376618287	-2.20139895367	0.945045814936
0	1	1	1	1	1	1	1	0	0	1	1	1	0.0	2.24913678241	-0.997503548088	0.905244679353	-0.690717602453	-0.511414008024	-0.60035543986	-0.843970085353	0.0	0.0	0.672523713552	1.17477130841	0.997874955996	-2.3155467864	0.930866131763
0	1	1	1	1	1	1	1	0	1	0	1	1	0.0	2.09311734232	-1.05565884909	0.680274815646	-0.665116762778	-0.51098837177	-0.70934911299	-0.89540433169	0.0	1.38957412071	0.0	1.17359858575	0.785093942659	-2.24435474893	0.943732295178
0	1	1	1	1	1	1	1	0	1	1	0	1	0.0	1.96055486154	-0.542988983877	0.421690773661	-0.842153187249	-0.533323182692	-0.892778944212	-1.12385793634	0.0	1.82562222224	-0.178656901831	0.0	2.05070546403	-2.50974385931	0.943494912089
0	1	1	1	1	1	1	1	0	1	1	1	0	0.0	2.12413470199	-1.06817661711	0.770086611384	-0.663782019234	-0.456254872916	-0.74531565817	-0.974823776666	0.0	2.27108206917	-0.456709781164	1.44602307032	0.0	-2.21951633813	0.947055658422
0	1	1	1	1	1	1	1	1	0	1	1	1	0.0	1.84102923404	-0.999373266029	0.281144025018	-0.562317017281	-0.600160374744	-1.04245804234	-1.21105037813	2.53214228406	0.0	0.354013152765	1.01726713635	0.644982817316	-1.98360143973	0.945022076627
0	1	1	1	1	1	1	1	1	0	0	1	1	0.0	1.78363335319	-0.910309840646	0.334012255248	-0.592641877575	-0.587261254436	-1.10402321627	-1.37093840083	2.96126966992	0.0	0.0	1.03304876894	0.713447881756	-1.89157376756	0.941864881546
0	1	1	1	1	1	1	1	1	0	1	0	1	0.0	1.66452318931	-0.570972443072	-0.0776748160477	-0.675125747946	-0.679014373745	-1.272910337	-1.44972615537	3.19775212803	0.0	0.408686310644	0.0	1.62147280349	-2.19551025686	0.944143759199
0	1	1	1	1	1	1	1	1	0	1	1	0	0.0	1.9100944845	-1.03191404698	0.375225797715	-0.534424009294	-0.580993785582	-1.06601831067	-1.26299187262	2.82528187118	0.0	0.386332969473	1.22604286648	0.0	-1.96750549661	0.945346500182
0	1	1	1	1	1	1	1	1	1	0	1	1	0.0	1.78792464596	-1.01702941337	0.212877801232	-0.566377189966	-0.590357742502	-1.05501102869	-1.19844730645	2.24619353594	0.807289414037	0.0	1.03187231169	0.567696587362	-1.98612984908	0.947807371536
0	1	1	1	1	1	1	1	1	1	0	0	1	0.0	1.60133699346	-0.567924847253	-0.146021510844	-0.686741346366	-0.662360970434	-1.30203900339	-1.46567730113	2.97712147414	0.823875016696	0.0	0.0	1.56049143218	-2.18713485925	0.945583883271
0	1	1	1	1	1	1	1	1	1	0	1	0	0.0	1.84182792924	-1.04726188682	0.282997118158	-0.543655421863	-0.575045936173	-1.07397447043	-1.23235511072	2.44489910743	0.9043761495	0.0	1.21355519818	0.0	-1.97761069646	0.948052667395
0	1	1	1	1	1	1	1	1	1	1	0	1	0.0	1.59894256635	-0.566855848147	-0.147527221609	-0.687329318199	-0.661812886729	-1.30342780229	-1.46784045702	2.97524859798	0.847681056931	-0.0155742362059	0.0	1.55972622275	-2.18598467312	0.945639272658
0	1	1	1	1	1	1	1	1	1	1	0	0	0.0	1.64492797179	-0.335886372433	-0.133230538793	-0.710052426311	-0.636550289137	-1.5685092843	-1.83158736366	4.24287040976	1.55318660493	-0.201201577857	0.0	0.0	-2.31477496633	0.932290430296
0	1	1	1	1	1	1	1	1	1	1	1	0	0.0	1.79817348622	-1.03588744131	0.258478662255	-0.552571366046	-0.561166964334	-1.09995198213	-1.27033467511	2.39380973061	1.34209512258	-0.290852811992	1.2148469948	0.0	-1.94895754844	0.948804380509
1	0	1	1	1	1	1	1	1	1	1	1	1	-2.00149608309	0.0	-0.555479519118	0.842120824097	-0.587097300823	-0.506249872913	0.136865039066	0.0150703410039	2.3886760673	1.24593237377	-0.324530298872	0.983799532701	0.491206072749	-1.90010982626	0.965872224596
1	0	0	1	1	1	1	1	1	1	1	1	1	-1.96280546019	0.0	0.0	0.774451945784	-0.740884777024	-0.588655766511	0.111380928839	-0.00551573548195	2.37801778618	1.21502205677	-0.322997463968	0.957338299969	0.496376039678	-2.2500991955	0.969535836934
1	0	0	0	1	1	1	1	1	1	1	1	1	-1.88273021869	0.0	0.0	0.0	-0.674339319122	-0.516198771275	0.227274757866	0.135284872086	2.51332474737	1.27630342276	-0.343455916538	0.943090776813	0.518320426982	-2.07146370306	0.969108547374
1	0	0	1	0	1	1	1	1	1	1	1	1	-1.90823226603	0.0	0.0	0.696185110764	0.0	-0.207217171839	0.111643797068	-0.00595021690735	2.39085663199	1.19693866175	-0.309627201611	0.959673149462	0.492640548719	-2.62495075783	0.969124372913
1	0	0	1	1	0	1	1	1	1	1	1	1	-1.94696710798	0.0	0.0	0.658479326463	-0.224338148044	0.0	0.071001289839	-0.0671843239002	2.32623719002	1.22475469963	-0.334335614468	0.958143038645	0.4877733367	-2.56862974391	0.969353843232
1	0	0	1	1	1	0	1	1	1	1	1	1	-1.92358759321	0.0	0.0	0.791592798799	-0.740277939895	-0.584918476193	0.0	0.0302482401585	2.38832411681	1.21901479239	-0.325224802133	0.956633313741	0.49750356503	-2.24853416909	0.96940923262
1	0	0	1	1	1	1	0	1	1	1	1	1	-1.96624377241	0.0	0.0	0.774070600347	-0.740454350464	-0.588926622504	0.112825280579	0.0	2.37503776579	1.21545008026	-0.322842937931	0.957493975341	0.496624863595	-2.25099008368	0.969543749703
1	0	0	1	1	1	1	1	0	1	1	1	1	-1.97860519392	0.0	0.0	1.33301472596	-0.800031456345	-0.466364903592	0.491587284964	0.329176302246	0.0	2.04109616577	-0.474414224286	1.10981182365	0.718192080602	-2.40080605644	0.967882068081
1	0	0	1	1	1	1	1	1	0	1	1	1	-1.97418871288	0.0	0.0	0.885368229526	-0.710944697777	-0.597453066742	0.159344271877	0.0252078781437	2.72635200638	0.0	0.286062305198	0.93282486385	0.604281116431	-2.2299928899	0.969013594138
1	0	0	1	1	1	1	1	1	1	0	1	1	-1.95326212844	0.0	0.0	0.804234316223	-0.722976139839	-0.598873447081	0.137808166266	0.0351558303574	2.43185817277	0.718074318268	0.0	0.942880765626	0.531053633509	-2.26703051303	0.969243064457
1	0	0	1	1	1	1	1	1	1	1	0	1	-2.18813184621	0.0	0.0	0.499053310039	-0.771014474047	-0.625602315894	0.0164693210371	-0.109967461093	3.08197093012	0.959266439872	-0.135344841844	0.0	1.42105602062	-2.2831171443	0.965334156261
1	0	0	1	1	1	1	1	1	1	1	1	0	-2.03490955879	0.0	0.0	0.849287313225	-0.729366543836	-0.571453724707	0.127980714488	-0.00333591328686	2.54376557878	1.40428788346	-0.396861126361	1.11070361305	0.0	-2.24567625142	0.970058079729
1	0	1	0	1	1	1	1	1	1	1	1	1	-1.90850665014	0.0	-0.50518883095	0.0	-0.529761662715	-0.433706597788	0.255491550023	0.162664406517	2.53711589116	1.30677110329	-0.345927787146	0.965872010522	0.513681018321	-1.73671697553	0.965492411654
1	0	1	0	0	1	1	1	1	1	1	1	1	-1.87948437932	0.0	-0.592620348932	0.0	0.0	-0.162154338673	0.250840432289	0.155289748323	2.54290195141	1.29577887629	-0.336103505376	0.972210570969	0.509063824867	-1.94913012363	0.964827739005
1	0	1	0	1	0	1	1	1	1	1	1	1	-1.90575188833	0.0	-0.577069443379	0.0	-0.140987999308	0.0	0.215829123439	0.102973189804	2.48764728944	1.30860113752	-0.351057279951	0.97133726486	0.504346502571	-1.93849722614	0.964788175157
1	0	1	0	1	1	0	1	1	1	1	1	1	-1.80919922829	0.0	-0.497000754644	0.0	-0.528611088929	-0.421780413394	0.0	0.245553845808	2.57367604278	1.31721952787	-0.352221095768	0.962827684456	0.516590109805	-1.72768768242	0.965808922439
1	0	1	0	1	1	1	0	1	1	1	1	1	-1.84501199476	0.0	-0.500354964416	0.0	-0.528348673787	-0.422832865953	0.306626038737	0.0	2.55818457087	1.31165825683	-0.351822113074	0.963771009435	0.514750809448	-1.72533802129	0.965658579816
1	0	1	0	1	1	1	1	0	1	1	1	1	-1.84621717709	0.0	-0.412527135103	0.0	-0.570821318773	-0.256597007892	0.757071631997	0.638516287082	0.0	2.26342692047	-0.529097948634	1.1208552778	0.782823229412	-1.82053078641	0.963988985425
1	0	1	0	1	1	1	1	1	0	1	1	1	-1.90067786163	0.0	-0.461235570512	0.0	-0.500508506941	-0.438940456468	0.319363222625	0.209982548601	2.9331999609	0.0	0.309922015931	0.93600391688	0.634752819295	-1.71576759779	0.964835651775
1	0	1	0	1	1	1	1	1	1	0	1	1	-1.89086562852	0.0	-0.50118754544	0.0	-0.510264485002	-0.440772869967	0.285009243522	0.207509485833	2.60187709466	0.77491760371	0.0	0.949817874049	0.55152087462	-1.74861138987	0.965215464717
1	0	1	0	1	1	1	1	1	1	1	0	1	-2.14349578353	0.0	-0.170725944131	0.0	-0.680719237968	-0.551352484862	0.100016051773	-0.0109958920358	3.17506087071	1.0102331731	-0.149760349055	0.0	1.43480237675	-2.05541546379	0.964250106822
1	0	1	0	1	1	1	1	1	1	1	1	0	-1.97425220182	0.0	-0.517497426321	0.0	-0.507819272134	-0.40585214024	0.283428138527	0.178019730506	2.72408382347	1.51062267129	-0.425384535704	1.12452524069	0.0	-1.70545138834	0.965713969203
1	0	1	1	0	1	1	1	1	1	1	1	1	-1.96446822632	0.0	-0.649187268147	0.793932638657	0.0	-0.203098465442	0.139003074881	0.0159111329223	2.40291244164	1.23768830761	-0.315017197893	0.989964044665	0.487130729213	-2.12467767654	0.964891041162
1	0	1	1	0	0	1	1	1	1	1	1	1	-1.97682518242	0.0	-0.65167487975	0.755458261621	0.0	0.0	0.112770955147	-0.0239858779987	2.36612175536	1.24797865873	-0.326502187186	0.989537407244	0.482280034128	-2.15629530169	0.964637832534
1	0	1	1	0	1	0	1	1	1	1	1	1	-1.91259454942	0.0	-0.646349902849	0.815060455214	0.0	-0.199656967081	0.0	0.0557188061445	2.41902012204	1.24115736256	-0.317434397436	0.988970129147	0.487939409651	-2.12359814037	0.964843564544
1	0	1	1	0	1	1	0	1	1	1	1	1	-1.95853643217	0.0	-0.649145602906	0.797145700015	0.0	-0.202303696791	0.14293108166	0.0	2.40458774743	1.23756109141	-0.3153102118	0.989834364094	0.487165796461	-2.12400226767	0.964898953932
1	0	1	1	0	1	1	1	0	1	1	1	1	-1.96613275987	0.0	-0.60543961188	1.34595720939	0.0	-0.0434572355841	0.513443475896	0.346737235195	0.0	2.08244843368	-0.472489052947	1.14006013687	0.712410500965	-2.34624436707	0.963411353242
1	0	1	1	0	1	1	1	1	0	1	1	1	-1.97086187196	0.0	-0.607950575541	0.901974488153	0.0	-0.225817370278	0.183124115746	0.041828252261	2.75853369793	0.0	0.303128937619	0.962893879793	0.595781561826	-2.1176554567	0.964186804665
1	0	1	1	0	1	1	1	1	1	0	1	1	-1.95304396813	0.0	-0.644271347607	0.823906561837	0.0	-0.220825860101	0.161736327378	0.0520977902861	2.4583269074	0.75078209751	0.0	0.975421138947	0.520215623847	-2.13421397436	0.964345060058
1	0	1	1	0	1	1	1	1	1	1	0	1	-2.15886409819	0.0	-0.301492363911	0.457104321274	0.0	-0.220831771446	0.0245534076308	-0.107638534821	3.11661595618	0.95382080224	-0.118551912139	0.0	1.43046555259	-2.44507530357	0.962928674295
1	0	1	1	0	1	1	1	1	1	1	1	0	-2.03339583007	0.0	-0.659149014135	0.862550136093	0.0	-0.187789538928	0.15352896316	0.0161845318056	2.56943528463	1.41941656371	-0.38652516918	1.13985197434	0.0	-2.10198697723	0.96514424979
1	0	1	1	1	0	1	1	1	1	1	1	1	-1.98985056839	0.0	-0.630413339495	0.752521275683	-0.136387452073	0.0	0.103398702746	-0.0377012983447	2.35001455014	1.25397550465	-0.332960163834	0.987935057425	0.481528179621	-2.11522665466	0.964898953932
1	0	1	1	1	0	0	1	1	1	1	1	1	-1.95186864924	0.0	-0.627825364144	0.767632884264	-0.139638487034	0.0	0.0	-0.00686530575561	2.36209476044	1.25728079627	-0.335118359283	0.987122949773	0.482193362823	-2.11283419494	0.965167988099
1	0	1	1	1	0	1	0	1	1	1	1	1	-2.00328872679	0.0	-0.630886643153	0.744804914491	-0.134311262464	0.0	0.0929629900849	0.0	2.34607205435	1.25409421572	-0.332166717777	0.988238287554	0.481506951999	-2.11771183333	0.964859390084
1	0	1	1	1	0	1	1	0	1	1	1	1	-1.9981736943	0.0	-0.560824064593	1.3215317416	-0.31668323321	0.0	0.478200192682	0.298794883599	0.0	2.07995546572	-0.485632438196	1.13387870668	0.704161476332	-2.25053074485	0.963648736331
1	0	1	1	1	0	1	1	1	0	1	1	1	-1.99411646657	0.0	-0.597387359368	0.858614974089	-0.10034350539	0.0	0.147679105506	-0.0116065885105	2.70853526488	0.0	0.294570182086	0.961002329208	0.593143435078	-2.12222136711	0.964368798367
1	0	1	1	1	0	1	1	1	1	0	1	1	-1.97431628053	0.0	-0.630750803111	0.780457791232	-0.108942109703	0.0	0.126227862735	-0.00106350807393	2.40692087824	0.740702840993	0.0	0.973132585767	0.516691144606	-2.13596236157	0.96451122822
1	0	1	1	1	0	1	1	1	1	1	0	1	-2.19612403264	0.0	-0.2853533352	0.422377202754	-0.203090926569	0.0	-0.01469232679	-0.168929878193	3.04042652257	0.979855631108	-0.143954900205	0.0	1.41755067379	-2.4055272544	0.963363876624
1	0	1	1	1	0	1	1	1	1	1	1	0	-2.05909701551	0.0	-0.641555804598	0.824645885652	-0.139208952112	0.0	0.120023437203	-0.0337529193344	2.5157584496	1.43776411373	-0.404721936997	1.13685432852	0.0	-2.09083286913	0.965120511481
1	0	1	1	1	1	0	1	1	1	1	1	1	-1.95103456419	0.0	-0.552664392068	0.861506187981	-0.587381039545	-0.502121247083	0.0	0.0552689385909	2.40434636105	1.25023729092	-0.32736806487	0.982810501618	0.491926664882	-1.89889572146	0.965682318125
1	0	1	1	1	1	0	0	1	1	1	1	1	-1.92290827752	0.0	-0.550973664596	0.872548372262	-0.58757793951	-0.49815612838	0.0	0.0	2.41248269786	1.25225168027	-0.329841784275	0.982097353655	0.492061311884	-1.89642554199	0.965524062732
1	0	1	1	1	1	0	1	0	1	1	1	1	-1.8200527948	0.0	-0.49407279803	1.48575700347	-0.667153978464	-0.367497680913	0.0	0.506533748844	0.0	2.11814776963	-0.495406427622	1.13278202625	0.721941613994	-2.08293161759	0.96345882986
1	0	1	1	1	1	0	1	1	0	1	1	1	-1.94064638818	0.0	-0.513449073312	0.974543520032	-0.567550156536	-0.513446160597	0.0	0.0960822643969	2.76966282553	0.0	0.297233618573	0.9551721862	0.602501571474	-1.89936055057	0.96514424979
1	0	1	1	1	1	0	1	1	1	0	1	1	-1.92869646283	0.0	-0.550207430921	0.894098498676	-0.570870023443	-0.510508331993	0.0	0.0983801840523	2.46564007004	0.744314146073	0.0	0.967547664341	0.526690122444	-1.91444868082	0.965286679644
1	0	1	1	1	1	0	1	1	1	1	0	1	-2.19548353081	0.0	-0.196797407573	0.523665820074	-0.719387739106	-0.591556554633	0.0	-0.099359348262	3.09524217023	0.96829514144	-0.133656000479	0.0	1.42622064441	-2.15843656602	0.964400449445
1	0	1	1	1	1	0	1	1	1	1	1	0	-2.01434365986	0.0	-0.564719608985	0.930025515169	-0.572530730709	-0.477871069362	0.0	0.0606475913831	2.57397951641	1.43524012377	-0.400101884424	1.1342725022	0.0	-1.8816022214	0.966441944009
1	0	1	1	1	1	1	0	1	1	1	1	1	-1.99559860052	0.0	-0.555355299098	0.844334825983	-0.586792180366	-0.505832294509	0.141049875763	0.0	2.39020469501	1.24648417305	-0.325100207957	0.983770978655	0.491056099152	-1.89938430751	0.965848486287
1	0	1	1	1	1	1	0	0	1	1	1	1	-1.88436825668	0.0	-0.498134946072	1.46499487254	-0.665889845048	-0.368905915053	0.614803911616	0.0	0.0	2.10111126117	-0.494005440054	1.13229646377	0.716236651554	-2.07477286523	0.964155153587
1	0	1	1	1	1	1	0	1	0	1	1	1	-1.99119696008	0.0	-0.517097009415	0.955959760761	-0.566608069825	-0.518028736922	0.193476806337	0.0	2.75135465154	0.0	0.297312739931	0.95658402347	0.600672709078	-1.89892012798	0.965255028565
1	0	1	1	1	1	1	0	1	1	0	1	1	-1.96838578512	0.0	-0.552685751112	0.879448055454	-0.570326440258	-0.513105650861	0.173470811814	0.0	2.45264305155	0.742744240169	0.0	0.968391274797	0.525569473026	-1.9136258239	0.965468673345
1	0	1	1	1	1	1	0	1	1	1	0	1	-2.24211932935	0.0	-0.198092510101	0.501971549951	-0.719518452702	-0.59782219248	-0.00764959300253	0.0	3.08338959755	0.965394977786	-0.12975678538	0.0	1.42720333606	-2.1631108953	0.964416274985
1	0	1	1	1	1	1	0	1	1	1	1	0	-2.0643218461	0.0	-0.566441550692	0.910819343232	-0.572344769787	-0.482252957513	0.156342017234	0.0	2.55831945394	1.43081350736	-0.397598363398	1.13489854659	0.0	-1.88319738044	0.966307426926
1	0	1	1	1	1	1	1	0	1	1	1	1	-2.00728642211	0.0	-0.503568032856	1.39659957295	-0.665369249728	-0.387734370388	0.509152008968	0.343156958466	0.0	2.08159824053	-0.479917515275	1.13279022579	0.714124022199	-2.08462107228	0.96387029388
1	0	1	1	1	1	1	1	0	0	1	1	1	-2.01282097486	0.0	-0.376036652956	1.71851104747	-0.667322985377	-0.389205017874	0.70406851277	0.48046327043	0.0	0.0	0.634086440527	1.12316101173	1.00298211834	-2.16972646303	0.961005871275
1	0	1	1	1	1	1	1	0	1	0	1	1	-1.98631325105	0.0	-0.489140742898	1.45522119225	-0.647248045272	-0.401143960326	0.558129396362	0.411796056915	0.0	1.36797521887	0.0	1.11814226013	0.772571623029	-2.12667843649	0.962588425201
1	0	1	1	1	1	1	1	0	1	1	0	1	-2.2509465032	0.0	-0.069306163497	1.20858418825	-0.844369326486	-0.434177285405	0.504686027519	0.310945980452	0.0	2.00076060445	-0.314415836075	0.0	1.935756999	-2.41842063804	0.962627989049
1	0	1	1	1	1	1	1	0	1	1	1	0	-2.10995238474	0.0	-0.503137330745	1.54920393305	-0.656958899265	-0.346071876619	0.573312654936	0.379338680371	0.0	2.45699347144	-0.605069670135	1.37917682066	0.0	-2.09715360267	0.96643403124
1	0	1	1	1	1	1	1	1	0	1	1	1	-2.00681754504	0.0	-0.517754310285	0.949123656867	-0.566734131169	-0.519851132286	0.181778635039	0.0420417077648	2.74694925642	0.0	0.298216687116	0.956943988196	0.60051806926	-1.900592643	0.965231290256
1	0	1	1	1	1	1	1	1	0	0	1	1	-2.06340282959	0.0	-0.461399362288	0.997466671365	-0.601117682186	-0.509266469781	0.158991475682	-0.0626993785135	3.09382938009	0.0	0.0	0.971013182877	0.650476641068	-1.83718179198	0.966568548323
1	0	1	1	1	1	1	1	1	0	1	0	1	-2.20287255971	0.0	-0.174356797583	0.613116436094	-0.70059514256	-0.606303869596	0.0620760820555	-0.0813198837655	3.35368662266	0.0	0.349844011934	0.0	1.49758509282	-2.1571895275	0.964242194053
1	0	1	1	1	1	1	1	1	0	1	1	0	-2.09801347562	0.0	-0.531451036926	1.0605592128	-0.542555270759	-0.496911235942	0.211619307368	0.0507741291526	3.02556487481	0.0	0.325117449249	1.14525591725	0.0	-1.88187535994	0.965429109497
1	0	1	1	1	1	1	1	1	1	0	1	1	-1.98880967843	0.0	-0.552708367106	0.870289820907	-0.5702600361	-0.515550229461	0.160658921017	0.0530968737281	2.44547037548	0.744834383622	0.0	0.968946865214	0.525433979547	-1.91659613897	0.965476586115
1	0	1	1	1	1	1	1	1	1	0	0	1	-2.19724626693	0.0	-0.199907305004	0.535818513464	-0.710859523132	-0.596730739745	0.0328854204545	-0.0899998063313	3.1131146767	0.763240260531	0.0	0.0	1.43350409189	-2.1639556749	0.964479577142
1	0	1	1	1	1	1	1	1	1	0	1	0	-2.06039515144	0.0	-0.567633216448	0.951718300185	-0.549649864152	-0.494015199547	0.18358208771	0.0637018656035	2.6394416909	0.826321905936	0.0	1.13092521844	0.0	-1.90330815355	0.966030479989
1	0	1	1	1	1	1	1	1	1	1	0	1	-2.20357884723	0.0	-0.197507274486	0.521514450509	-0.719323196821	-0.592329311063	0.0224181823022	-0.106868265923	3.09313977218	0.966845140666	-0.13284837606	0.0	1.4262217988	-2.1586002148	0.964384623906
1	0	1	1	1	1	1	1	1	1	1	0	0	-2.61897815488	0.0	0.00473006744545	0.602783096189	-0.768503187539	-0.572022486303	0.030116004017	-0.187021982144	4.21108889209	1.59209935048	-0.304046060603	0.0	0.0	-2.31073260946	0.964273845131
1	0	1	1	1	1	1	1	1	1	1	1	0	-2.06993641059	0.0	-0.567735589299	0.908477663764	-0.572108914455	-0.482757290526	0.15172171935	0.0159596801197	2.55636190702	1.43018152227	-0.396872008084	1.13512507611	0.0	-1.88298413917	0.966267863077
1	1	0	1	1	1	1	1	1	1	1	1	1	-1.91918749186	1.17553782209	0.0	0.516043097968	-0.937685554628	-0.715038818647	0.014295249293	-0.101242326346	2.24418464386	1.11330504554	-0.269180510977	0.951756192432	0.482320843973	-2.69410301383	0.971933406131
1	1	0	0	1	1	1	1	1	1	1	1	1	-1.86134202407	1.26472301485	0.0	0.0	-0.91066485284	-0.679325636061	0.0793706328139	-0.0210071768451	2.32186977722	1.14558758576	-0.278582403274	0.942271096008	0.496047199063	-2.61287647862	0.971854278435
1	1	0	0	0	1	1	1	1	1	1	1	1	-1.80639694218	1.10764735286	0.0	0.0	0.0	-0.209255079913	0.0811020431044	-0.0208528264547	2.34789712402	1.1314881633	-0.267888062417	0.946832539903	0.490761852245	-3.01657523364	0.970635711912
1	1	0	0	1	0	1	1	1	1	1	1	1	-1.85893206491	1.1239685749	0.0	0.0	-0.304214016604	0.0	0.0288385664478	-0.0980768065322	2.26110881485	1.16097147316	-0.295475918935	0.94601021539	0.485637199041	-2.94858007808	0.971355773948
1	1	0	0	1	1	0	1	1	1	1	1	1	-1.83063942641	1.27154259263	0.0	0.0	-0.910790742939	-0.676333101112	0.0	0.00383881750415	2.33207507211	1.14865262617	-0.280362939806	0.941534638256	0.496784587836	-2.61140967625	0.971783063508
1	1	0	0	1	1	1	0	1	1	1	1	1	-1.87021721226	1.25886158709	0.0	0.0	-0.909525702235	-0.679519251726	0.0746150823569	0.0	2.31979544004	1.1455865112	-0.278245245837	0.942498198137	0.496012158424	-2.61242890302	0.971862191204
1	1	0	0	1	1	1	1	0	1	1	1	1	-1.81087559984	1.62864499548	0.0	0.0	-0.990328938383	-0.548636851971	0.495498294708	0.366025539007	0.0	1.96805318798	-0.418266558799	1.08782482149	0.715747092834	-2.79077727991	0.970960135467
1	1	0	0	1	1	1	1	1	0	1	1	1	-1.85922935096	1.36451399676	0.0	0.0	-0.891189690097	-0.693127830541	0.127931980646	0.0155008739407	2.6541273193	0.0	0.29679100894	0.917535581948	0.600255345188	-2.61353137063	0.971252907943
1	1	0	0	1	1	1	1	1	1	0	1	1	-1.84933932275	1.29897872917	0.0	0.0	-0.899369200414	-0.69048742439	0.100754674325	0.0146253332681	2.36795823078	0.717037321639	0.0	0.929460513673	0.526087945797	-2.63620213712	0.971442814414
1	1	0	0	1	1	1	1	1	1	1	0	1	-2.11462092058	1.2626481287	0.0	0.0	-0.96552335025	-0.731911476396	-0.0545141969651	-0.175838693063	2.96873278458	0.871463005679	-0.0852038988349	0.0	1.39682390292	-2.70576585335	0.968151102249
1	1	0	0	1	1	1	1	1	1	1	1	0	-1.92649959513	1.2939049596	0.0	0.0	-0.897174248882	-0.660138380188	0.104480381004	-0.00619087113948	2.49486776148	1.34090025337	-0.353767832699	1.09565624479	0.0	-2.60554649955	0.971237082404
1	1	0	1	0	1	1	1	1	1	1	1	1	-1.85387975364	1.02908941042	0.0	0.452899396615	0.0	-0.229139133744	0.0234616198673	-0.0937697692632	2.2801846379	1.10259172481	-0.259226984257	0.955306131399	0.47885605531	-3.10020860697	0.970999699315
1	1	0	1	0	0	1	1	1	1	1	1	1	-1.87083938279	1.01478308243	0.0	0.414645203009	0.0	0.0	-0.00401502803061	-0.136129694497	2.23767080987	1.11969744439	-0.274503387303	0.954946215407	0.475272790678	-3.13517810485	0.971276646252
1	1	0	1	0	1	0	1	1	1	1	1	1	-1.845169349	1.03012733671	0.0	0.456611754794	0.0	-0.228156037965	0.0	-0.0872313047268	2.28227631143	1.10279389258	-0.259372915439	0.95514691826	0.479137671302	-3.10031074408	0.971015524854
1	1	0	1	0	1	1	0	1	1	1	1	1	-1.88762017769	1.02367229735	0.0	0.438122011991	0.0	-0.233164802195	-0.00272840891338	0.0	2.27148848535	1.10134882546	-0.256573912163	0.956053868489	0.478824680527	-3.10227159909	0.970873095001
1	1	0	1	0	1	1	1	0	1	1	1	1	-1.85049834442	1.2852594878	0.0	0.91453908431	0.0	-0.0865062559814	0.361610203385	0.198554868903	0.0	1.86237532832	-0.384676336545	1.10152463015	0.679267019314	-3.39381811335	0.97089683331
1	1	0	1	0	1	1	1	1	0	1	1	1	-1.86031406246	1.11807575604	0.0	0.536782429913	0.0	-0.254116347807	0.057801625113	-0.0753350311425	2.58539182415	0.0	0.293358455315	0.932774292018	0.576145588685	-3.11050804418	0.970627799142
1	1	0	1	0	1	1	1	1	1	0	1	1	-1.84366315525	1.06400849717	0.0	0.470341617414	0.0	-0.244463210432	0.0395961996729	-0.0662864562714	2.32038356838	0.702874404309	0.0	0.943546653686	0.505927725443	-3.12252934383	0.970485369289
1	1	0	1	0	1	1	1	1	1	1	0	1	-2.07429512242	1.0697030205	0.0	0.168097466667	0.0	-0.245301105843	-0.0759906621722	-0.206661177013	2.98115046178	0.842134967592	-0.0685432996935	0.0	1.39799648406	-3.16941331068	0.967138267736
1	1	0	1	0	1	1	1	1	1	1	1	0	-1.92279324154	1.05254806153	0.0	0.518910309975	0.0	-0.219272448375	0.037305409871	-0.0931738982159	2.43800634348	1.28524050343	-0.330582320071	1.10333362946	0.0	-3.10124403933	0.970493282059
1	1	0	1	1	0	1	1	1	1	1	1	1	-1.9031175548	1.05166217775	0.0	0.408922232439	-0.301059011721	0.0	-0.0257883346735	-0.167411481008	2.19680857923	1.13560059272	-0.288518829981	0.953673646334	0.474149626468	-3.02861514654	0.971474465492
1	1	0	1	1	0	0	1	1	1	1	1	1	-1.91258476657	1.0498549753	0.0	0.405504364755	-0.300260663296	0.0	0.0	-0.174947994041	2.19399211433	1.13495976769	-0.288100818172	0.953840353533	0.474015107009	-3.02883422947	0.971474465492
1	1	0	1	1	0	1	0	1	1	1	1	1	-1.96347280316	1.04022892187	0.0	0.381414785543	-0.293635027126	0.0	-0.0729472181378	0.0	2.18126693484	1.13352965701	-0.283993601945	0.954973309724	0.473964772694	-3.03577894873	0.971363686718
1	1	0	1	1	0	1	1	0	1	1	1	1	-1.90549228415	1.32911251499	0.0	0.871578766274	-0.4822110347	0.0	0.301926891689	0.120466868583	0.0	1.86384230354	-0.407978733332	1.09334130856	0.666601865905	-3.22088171778	0.971134216398
1	1	0	1	1	0	1	1	1	0	1	1	1	-1.90816805411	1.1370860333	0.0	0.492808215499	-0.269516785323	0.0	0.00865615203191	-0.150240099001	2.51091645651	0.0	0.280477272996	0.930509237798	0.574225521537	-3.05450734865	0.970968048236
1	1	0	1	1	0	1	1	1	1	0	1	1	-1.890428377	1.08625336801	0.0	0.426891242204	-0.279441743979	0.0	-0.0083628579377	-0.138174257568	2.24095457139	0.69066307122	0.0	0.940687684043	0.504591149611	-3.06395582265	0.9713162101
1	1	0	1	1	0	1	1	1	1	1	0	1	-2.12504365348	1.09568626744	0.0	0.124646781339	-0.322578906924	0.0	-0.12549906182	-0.285131088688	2.87425963526	0.883105541477	-0.103080013478	0.0	1.38977624601	-3.08796719368	0.967739638228
1	1	0	1	1	0	1	1	1	1	1	1	0	-1.97132904488	1.07749036594	0.0	0.478248002854	-0.305828400648	0.0	-0.0124430285328	-0.167448914884	2.35627179194	1.31764694172	-0.360089927349	1.10034858377	0.0	-3.02896284264	0.97110256532
1	1	0	1	1	1	0	1	1	1	1	1	1	-1.91406070387	1.17688118216	0.0	0.517711977011	-0.937832692889	-0.714657365614	0.0	-0.0969857284094	2.2456119099	1.11385631535	-0.269515133068	0.951655694646	0.48237499546	-2.6943612127	0.971893842283
1	1	0	1	1	1	0	0	1	1	1	1	1	-1.96273860257	1.16883960033	0.0	0.497568423864	-0.937212662318	-0.720310792558	0.0	0.0	2.23278946194	1.11159207754	-0.265987543008	0.952673101219	0.482264664104	-2.69671479654	0.971846365665
1	1	0	1	1	1	0	1	0	1	1	1	1	-1.79284285778	1.4682946714	0.0	1.02948664453	-1.04306697092	-0.615767452604	0.0	0.290721138317	0.0	1.88123593847	-0.402157401575	1.09506364724	0.684310138712	-2.94090393837	0.971347861178
1	1	0	1	1	1	0	1	1	0	1	1	1	-1.90666629512	1.26609677335	0.0	0.607467908268	-0.925415446233	-0.733468667388	0.0	-0.0679691363309	2.55808813157	0.0	0.288727599986	0.928752378717	0.58096076768	-2.71006154289	0.971814714586
1	1	0	1	1	1	0	1	1	1	0	1	1	-1.89612130998	1.21252359016	0.0	0.538593571985	-0.929538186361	-0.726917068026	0.0	-0.0641293095131	2.28979427036	0.698268508253	0.0	0.939395544996	0.510859508746	-2.72116939071	0.971656459194
1	1	0	1	1	1	0	1	1	1	1	0	1	-2.1731296465	1.21854021068	0.0	0.225639000274	-0.978169630372	-0.751252817113	0.0	-0.239505250426	2.92759684983	0.852661826994	-0.0782209998467	0.0	1.39456556396	-2.74399663271	0.96833309595
1	1	0	1	1	1	0	1	1	1	1	1	0	-1.97758195714	1.1992211865	0.0	0.587083491924	-0.929970010866	-0.701009177994	0.0	-0.0924932300741	2.40611931843	1.29825285953	-0.341500749379	1.10095696251	0.0	-2.69884335922	0.971719761351
1	1	0	1	1	1	1	0	1	1	1	1	1	-1.9553967533	1.16961568873	0.0	0.500039781282	-0.937147454645	-0.719404555258	-0.0140485382181	0.0	2.23480040988	1.11198046959	-0.266317680925	0.952546425587	0.482363431481	-2.69645045249	0.971838452895
1	1	0	1	1	1	1	0	0	1	1	1	1	-1.8542928374	1.45555874204	0.0	1.00899214577	-1.04055121758	-0.618874844837	0.399922233174	0.0	0.0	1.86788342871	-0.399816533813	1.09499716931	0.680647005428	-2.93426973118	0.97152194211
1	1	0	1	1	1	1	0	1	0	1	1	1	-1.95430370633	1.25780570637	0.0	0.587798915784	-0.924576522722	-0.738243747647	0.0262974540534	0.0	2.54482217017	0.0	0.290670353099	0.929763600718	0.580443318908	-2.71168468218	0.971830540126
1	1	0	1	1	1	1	0	1	1	0	1	1	-1.93394007827	1.20571163178	0.0	0.522742269886	-0.928899815457	-0.730731797759	0.010415571903	0.0	2.27947311044	0.700465870174	0.0	0.940264238109	0.510424089197	-2.72241595994	0.971775150738
1	1	0	1	1	1	1	0	1	1	1	0	1	-2.21926228176	1.21072129324	0.0	0.203022119285	-0.977440972374	-0.758462128399	-0.145792359557	0.0	2.91854268654	0.851906069903	-0.0734977414362	0.0	1.39596960831	-2.74931434705	0.968071974553
1	1	0	1	1	1	1	0	1	1	1	1	0	-2.0241250246	1.19149729716	0.0	0.567213829098	-0.92917090202	-0.706089757196	0.000451964276303	0.0	2.39382477286	1.29610197751	-0.338086053473	1.10188821635	0.0	-2.70108927762	0.971537767649
1	1	0	1	1	1	1	1	0	1	1	1	1	-1.92234215083	1.44222744558	0.0	0.975787340331	-1.03836150078	-0.627502123905	0.346049377934	0.185385432449	0.0	1.86013771044	-0.393707820527	1.095318425	0.679156700779	-2.93713184728	0.971561505958
1	1	0	1	1	1	1	1	0	0	1	1	1	-1.92789764117	1.67815606039	0.0	1.22471406504	-1.04607446266	-0.639260870447	0.499959466365	0.285565023004	0.0	0.0	0.601994794068	1.09003382702	0.92046609744	-3.02781829989	0.968752472741
1	1	0	1	1	1	1	1	0	1	0	1	1	-1.90386216259	1.50373554153	0.0	1.01160374602	-1.02806188951	-0.644155340447	0.381147576364	0.234439707637	0.0	1.26776044394	0.0	1.08332499899	0.724400047154	-2.98276563666	0.970635711912
1	1	0	1	1	1	1	1	0	1	1	0	1	-2.18362109665	1.5907737964	0.0	0.816132656669	-1.12672722268	-0.616988934041	0.338020300731	0.150273086846	0.0	1.79854654662	-0.23069825259	0.0	1.86570912807	-3.05124893875	0.967328174208
1	1	0	1	1	1	1	1	0	1	1	1	0	-2.01623948724	1.50482280827	0.0	1.10524956528	-1.03939477223	-0.594306354556	0.399066389568	0.215169185068	0.0	2.19916068332	-0.504026414393	1.32695730253	0.0	-2.96907928252	0.972724683094
1	1	0	1	1	1	1	1	1	0	1	1	1	-1.92450647447	1.2626322793	0.0	0.600737460179	-0.925011769054	-0.734703336739	0.0491794726668	-0.082406312729	2.55262793514	0.0	0.288913323746	0.929109416143	0.580610321225	-2.70966248323	0.971878016743
1	1	0	1	1	1	1	1	1	0	0	1	1	-1.98502052298	1.25327913827	0.0	0.659322521411	-0.942093910289	-0.713574834429	0.0303367824245	-0.182417077059	2.89477713603	0.0	0.0	0.945989130019	0.625835374496	-2.61026070007	0.97194923167
1	1	0	1	1	1	1	1	1	0	1	0	1	-2.13935626064	1.28622109261	0.0	0.307442373845	-0.96640801483	-0.768307148601	-0.0532371283567	-0.196298701331	3.15919274085	0.0	0.349858712824	0.0	1.45732594245	-2.75691942844	0.968064061783
1	1	0	1	1	1	1	1	1	0	1	1	0	-2.01115411085	1.30733649171	0.0	0.701621020467	-0.912439861855	-0.722055747053	0.0741013522823	-0.0774224414663	2.81331169456	0.0	0.315028919419	1.11057452551	0.0	-2.71868477328	0.971672284733
1	1	0	1	1	1	1	1	1	1	0	1	1	-1.90761891176	1.21079260494	0.0	0.534815559565	-0.929304037137	-0.72806254705	0.0313495689192	-0.0728380201076	2.28539826471	0.698498595609	0.0	0.939669723628	0.510820096921	-2.72130773884	0.971680197503
1	1	0	1	1	1	1	1	1	1	0	0	1	-2.1370053822	1.23362874502	0.0	0.243696452715	-0.975868236988	-0.753259049896	-0.0801582358463	-0.205453663302	2.94607675659	0.732590295899	0.0	0.0	1.3995801573	-2.75232783807	0.968190666097
1	1	0	1	1	1	1	1	1	1	0	1	0	-1.97779646704	1.24489660134	0.0	0.610542179031	-0.918266117065	-0.717255742292	0.0526355503585	-0.063065301217	2.46352836724	0.780554469231	0.0	1.09801778535	0.0	-2.73522943811	0.971640633655
1	1	0	1	1	1	1	1	1	1	1	0	1	-2.14140308117	1.22391413193	0.0	0.237114197836	-0.978836125553	-0.748901045144	-0.0858742228245	-0.214636055864	2.93597345863	0.855360963845	-0.0798838679391	0.0	1.39451192156	-2.74428391049	0.968253968254
1	1	0	1	1	1	1	1	1	1	1	0	0	-2.5590321575	1.33407778513	0.0	0.307614926995	-0.989754784357	-0.714103107391	-0.0820125708868	-0.29447819511	4.04194312929	1.46683498793	-0.244359343905	0.0	0.0	-2.80744321461	0.966164997072
1	1	0	1	1	1	1	1	1	1	1	1	0	-1.98796335359	1.19740345923	0.0	0.58315223151	-0.929729552232	-0.701769802272	0.0285605086652	-0.100729906662	2.40304176105	1.29742078782	-0.340945716866	1.10110957725	0.0	-2.69871759759	0.971759325199
1	1	1	0	1	1	1	1	1	1	1	1	1	-1.90606020769	1.79086496478	-1.07894420013	0.0	-0.700530414017	-0.569704418876	0.0794371121946	-0.0301774795985	2.29045281078	1.15746172587	-0.257055750805	0.991031595735	0.47673003259	-2.12332556926	0.96663976325
1	1	1	0	0	1	1	1	1	1	1	1	1	-1.8678130383	1.72161027125	-1.17153650911	0.0	0.0	-0.207089546994	0.0801810348424	-0.0330892086047	2.30679574151	1.1479804309	-0.247196193224	0.998576859956	0.471708335829	-2.38624502294	0.965247115795
1	1	1	0	0	0	1	1	1	1	1	1	1	-1.88618820595	1.70227414636	-1.1708500106	0.0	0.0	0.0	0.0497717954582	-0.0777841933543	2.26474738075	1.15913687066	-0.259720143786	0.998651857828	0.466374692219	-2.42333931872	0.965405371188
1	1	1	0	0	1	0	1	1	1	1	1	1	-1.83798823328	1.72655395715	-1.17035227475	0.0	0.0	-0.205646038847	0.0	-0.00480823031915	2.31726633574	1.15122607039	-0.249008575759	0.997817675084	0.472307959362	-2.38463231572	0.965207551947
1	1	1	0	0	1	1	0	1	1	1	1	1	-1.88133802397	1.71653318272	-1.1702588606	0.0	0.0	-0.210518256334	0.0723495787291	0.0	2.30318699655	1.14793723697	-0.246517500778	0.998912183315	0.471561081768	-2.38766977386	0.965231290256
1	1	1	0	0	1	1	1	0	1	1	1	1	-1.81388560414	2.08910650114	-1.20720259186	0.0	0.0	-0.0354460950672	0.489229556478	0.347815153801	0.0	1.99257850795	-0.397947963491	1.14047154852	0.698533106801	-2.59115980805	0.965136337021
1	1	1	0	0	1	1	1	1	0	1	1	1	-1.8659784387	1.82066239576	-1.15924291473	0.0	0.0	-0.227729454868	0.126344859849	0.00080163702011	2.64293600802	0.0	0.327623735331	0.97230098592	0.573032869607	-2.38314479051	0.964242194053
1	1	1	0	0	1	1	1	1	1	0	1	1	-1.8585128417	1.75907483826	-1.17841998754	0.0	0.0	-0.222204796708	0.0990155862797	-0.00194435158446	2.3483519743	0.76677421694	0.0	0.987248758724	0.497569034498	-2.39862798842	0.964724873
1	1	1	0	0	1	1	1	1	1	1	0	1	-2.10862180123	1.50540800272	-0.77839580635	0.0	0.0	-0.223979773516	-0.0636875581031	-0.19502919927	3.00315536426	0.851495372564	-0.0507079488274	0.0	1.41583002397	-2.72341456617	0.963624998022
1	1	1	0	0	1	1	1	1	1	1	1	0	-1.92968978579	1.76595390401	-1.19013924124	0.0	0.0	-0.192979978572	0.100478082906	-0.0236079275523	2.47570491837	1.32811568129	-0.317309714607	1.14320433713	0.0	-2.36327702139	0.965555713811
1	1	1	0	1	0	1	1	1	1	1	1	1	-1.90716912453	1.70932427278	-1.14480591006	0.0	-0.18827566801	0.0	0.0365579047308	-0.0959332090686	2.24029736923	1.16767661172	-0.268598675304	0.996631985436	0.465382009648	-2.37011020477	0.965682318125
1	1	1	0	1	0	0	1	1	1	1	1	1	-1.89302982692	1.71311279122	-1.144830985	0.0	-0.189782046423	0.0	0.0	-0.0843946852969	2.24511538428	1.16886052637	-0.269287640827	0.996276040159	0.465742172728	-2.36880899875	0.965626928738
1	1	1	0	1	0	1	0	1	1	1	1	1	-1.94451432488	1.70003682311	-1.14502639325	0.0	-0.184019639532	0.0	0.00638677507589	0.0	2.22857747273	1.16552930259	-0.265697540352	0.997690432998	0.464855658669	-2.37742316522	0.965642754277
1	1	1	0	1	0	1	1	0	1	1	1	1	-1.85690549128	2.09745289793	-1.1588114118	0.0	-0.381396462671	0.0	0.44392186253	0.289440567626	0.0	1.98521587824	-0.412306924725	1.13342708752	0.68802611042	-2.4806098868	0.966141258763
1	1	1	0	1	0	1	1	1	0	1	1	1	-1.90317534779	1.81058015072	-1.14069716704	0.0	-0.158420254898	0.0	0.0830611996729	-0.0639581988892	2.57948869067	0.0	0.316779919403	0.970737095816	0.57035894432	-2.37957940379	0.964170979126
1	1	1	0	1	0	1	1	1	1	0	1	1	-1.89437970288	1.75042934523	-1.15711509256	0.0	-0.167514283077	0.0	0.0549724183352	-0.0658846249337	2.28484895261	0.753543250764	0.0	0.984663025025	0.493696524305	-2.39228888274	0.965128424251
1	1	1	0	1	0	1	1	1	1	1	0	1	-2.15296306248	1.50699300831	-0.75645766779	0.0	-0.253028369229	0.0	-0.110499495546	-0.270693081805	2.9070010066	0.881348240176	-0.0805149806749	0.0	1.40907014872	-2.6824404186	0.963553783095
1	1	1	0	1	0	1	1	1	1	1	1	0	-1.96746365641	1.75696936255	-1.16733068638	0.0	-0.19046719229	0.0	0.0594841768107	-0.0837683734206	2.40724100288	1.34704145752	-0.337663853824	1.14055291081	0.0	-2.34329660569	0.965476586115
1	1	1	0	1	1	0	1	1	1	1	1	1	-1.87716229262	1.79502962787	-1.07731213735	0.0	-0.700607082546	-0.566158820397	0.0	-0.0025137143126	2.30074809872	1.16051752796	-0.258864322112	0.990161409488	0.477405798851	-2.12221251987	0.966750542025
1	1	1	0	1	1	0	0	1	1	1	1	1	-1.87858189874	1.79445216309	-1.07722461114	0.0	-0.700833963919	-0.566464173965	0.0	0.0	2.30036409175	1.16067085017	-0.258914101864	0.990212556839	0.477329737643	-2.12216188993	0.966726803716
1	1	1	0	1	1	0	1	0	1	1	1	1	-1.66432342797	2.2195002324	-1.1119564073	0.0	-0.780568497187	-0.415332684317	0.0	0.516414213112	0.0	2.02779813082	-0.418489805033	1.1313724342	0.710119938842	-2.28404425422	0.966536897245
1	1	1	0	1	1	0	1	1	0	1	1	1	-1.85481580189	1.90075006761	-1.06941426554	0.0	-0.684342034461	-0.577076037345	0.0	0.0441355530897	2.64666077024	0.0	0.322491326066	0.963469348336	0.581001593693	-2.12435043136	0.965927613983
1	1	1	0	1	1	0	1	1	1	0	1	1	-1.85762602309	1.8375759371	-1.08762394101	0.0	-0.689457687456	-0.574466523042	0.0	0.0328340345897	2.34709629023	0.761440387968	0.0	0.97829392936	0.504566014846	-2.13907315653	0.966386554622
1	1	1	0	1	1	0	1	1	1	1	0	1	-2.17667875104	1.58884817549	-0.675879291085	0.0	-0.840784057606	-0.660679193027	0.0	-0.209438271611	2.96477252341	0.863619367766	-0.0635578037192	0.0	1.41310486979	-2.40156549251	0.965286679644
1	1	1	0	1	1	0	1	1	1	1	1	0	-1.93052429807	1.84124800419	-1.10190838642	0.0	-0.68451808333	-0.542912036218	0.0	0.013587399076	2.47338012214	1.34384669608	-0.329907122528	1.13717476888	0.0	-2.10238627437	0.966663501559
1	1	1	0	1	1	1	0	1	1	1	1	1	-1.91908242403	1.78552983058	-1.07744325613	0.0	-0.700514089817	-0.570817494094	0.0721255754665	0.0	2.28702632781	1.15724983405	-0.256437943371	0.991235253421	0.476670626844	-2.12501968698	0.966703065407
1	1	1	0	1	1	1	0	0	1	1	1	1	-1.71893298652	2.20550923353	-1.11296709218	0.0	-0.77846187747	-0.415895178994	0.601863472224	0.0	0.0	2.01146480135	-0.417927447732	1.1309042454	0.704761332018	-2.27418679196	0.966734716485
1	1	1	0	1	1	1	0	1	0	1	1	1	-1.90206139366	1.88961955024	-1.06930516425	0.0	-0.684359612999	-0.58135899066	0.127304337773	0.0	2.62973869266	0.0	0.322708374758	0.964662841535	0.579478122455	-2.12635291406	0.965848486287
1	1	1	0	1	1	1	0	1	1	0	1	1	-1.8952036289	1.82884405792	-1.08764804489	0.0	-0.68940535421	-0.578060066126	0.0989839424214	0.0	2.33417919253	0.76109188504	0.0	0.979296653286	0.503602360729	-2.14064041698	0.966402380161
1	1	1	0	1	1	1	0	1	1	1	0	1	-2.22547157044	1.57627653849	-0.673813015238	0.0	-0.84211719211	-0.668841823389	-0.123578829754	0.0	2.95295559384	0.862308227997	-0.0593960522373	0.0	1.41384367191	-2.41076137288	0.965088860403
1	1	1	0	1	1	1	0	1	1	1	1	0	-1.97635286104	1.8307330581	-1.10125689892	0.0	-0.684771497522	-0.547788140628	0.0955025216918	0.0	2.45739362304	1.33931736467	-0.326952121907	1.13804271045	0.0	-2.1054820591	0.966798018642
1	1	1	0	1	1	1	1	0	1	1	1	1	-1.857831232	2.16526481916	-1.10937066801	0.0	-0.778846537953	-0.438532033588	0.486050373213	0.348844728229	0.0	1.98971214593	-0.404617535552	1.13199362435	0.699769572545	-2.29091447226	0.966679327098
1	1	1	0	1	1	1	1	0	0	1	1	1	-1.83165139904	2.4439047593	-1.05533346134	0.0	-0.788488483177	-0.427451956154	0.693094886746	0.507478386269	0.0	0.0	0.670973201428	1.12358507558	0.970535625348	-2.37584160901	0.963925683268
1	1	1	0	1	1	1	1	0	1	0	1	1	-1.83271262054	2.23898512891	-1.11734164276	0.0	-0.768373187964	-0.452807925225	0.526680043928	0.405117123947	0.0	1.38920288838	0.0	1.11969139063	0.749753126059	-2.33375081686	0.96536580734
1	1	1	0	1	1	1	1	0	1	1	0	1	-2.12474240798	2.06894997152	-0.659382784775	0.0	-0.966579695421	-0.480569890704	0.456847765571	0.284276135338	0.0	1.89897843444	-0.24001676195	0.0	1.91100715	-2.63476563219	0.964432100524
1	1	1	0	1	1	1	1	0	1	1	1	0	-1.93988599674	2.2700823285	-1.13327304602	0.0	-0.771537025182	-0.392543919909	0.562706231516	0.400662016641	0.0	2.36351778738	-0.52509456122	1.37502982067	0.0	-2.29821272597	0.96792163193
1	1	1	0	1	1	1	1	1	0	1	1	1	-1.90233741228	1.89106745415	-1.07012545567	0.0	-0.684760471504	-0.581491833561	0.125188806132	0.00234110285822	2.62931920302	0.0	0.322752989703	0.964710311485	0.579467031919	-2.1264082635	0.965848486287
1	1	1	0	1	1	1	1	1	0	0	1	1	-1.96208611896	1.85275064762	-0.995905383458	0.0	-0.715224623576	-0.555966209251	0.113826219396	-0.097695385924	3.02401609748	0.0	0.0	0.978897532232	0.631148141636	-2.03846562145	0.966054218297
1	1	1	0	1	1	1	1	1	0	1	0	1	-2.14283833021	1.67459927378	-0.681677590078	0.0	-0.824091148685	-0.669702465185	-0.0208849126024	-0.160542656144	3.20931365473	0.0	0.37102444886	0.0	1.47536124562	-2.39880108191	0.964685309152
1	1	1	0	1	1	1	1	1	0	1	1	0	-1.97977465038	1.96697798332	-1.10376706124	0.0	-0.659340503591	-0.558574005101	0.16492166294	0.0253002882893	2.90489989672	0.0	0.352234629801	1.1473311331	0.0	-2.10445304181	0.965745620282
1	1	1	0	1	1	1	1	1	1	0	1	1	-1.89575663527	1.82875229754	-1.08752732913	0.0	-0.689469854507	-0.578155119196	0.0983704904369	0.00133557876576	2.33447771621	0.760954068907	0.0	0.979267154491	0.503568849225	-2.14079408774	0.966402380161
1	1	1	0	1	1	1	1	1	1	0	0	1	-2.14692072486	1.60594727721	-0.67884576528	0.0	-0.837923703517	-0.661009534067	-0.0583105011452	-0.18287180457	2.98181263768	0.765906865699	0.0	0.0	1.41751030206	-2.40493987149	0.96516007533
1	1	1	0	1	1	1	1	1	1	0	1	0	-1.9572504405	1.88867548181	-1.11813372693	0.0	-0.668639405621	-0.557666008495	0.126664051446	0.0198830086516	2.52920915119	0.840789044739	0.0	1.13446639713	0.0	-2.12561983321	0.966307426926
1	1	1	0	1	1	1	1	1	1	1	0	1	-2.15232406127	1.59428744593	-0.676095170042	0.0	-0.84072988469	-0.658363289123	-0.0626427887245	-0.189477975602	2.9725101859	0.866033462054	-0.0649465139222	0.0	1.4131258115	-2.40029120371	0.965199639178
1	1	1	0	1	1	1	1	1	1	1	0	0	-2.55425451127	1.62793841391	-0.479519668905	0.0	-0.886008916178	-0.647115607325	-0.0417347050867	-0.257741813973	4.09657453134	1.49507704244	-0.234424813327	0.0	0.0	-2.55190099434	0.964669483613
1	1	1	0	1	1	1	1	1	1	1	1	0	-1.96937590987	1.83304093567	-1.10083120901	0.0	-0.685084319785	-0.547040110357	0.101020552723	-0.0191303810681	2.46071110891	1.34011833819	-0.327934784582	1.1376753252	0.0	-2.10523346908	0.966758454794
1	1	1	1	0	1	1	1	1	1	1	1	1	-1.92211371937	1.63935020333	-1.17822812137	0.485171792018	0.0	-0.231301820722	0.0212027488026	-0.107083877226	2.23219386771	1.11984426432	-0.238669362244	1.00816790378	0.460065164586	-2.47294187212	0.965634841507
1	1	1	1	0	0	1	1	1	1	1	1	1	-1.93718432566	1.62548106907	-1.17663191561	0.442983922641	0.0	0.0	-0.00745347211729	-0.150653827028	2.19195223516	1.13412969714	-0.253050126199	1.00744142611	0.455057370965	-2.50645002065	0.965666492586
1	1	1	1	0	0	0	1	1	1	1	1	1	-1.94001440295	1.62484866292	-1.17657847179	0.441969235001	0.0	0.0	0.0	-0.152750523431	2.19110378584	1.13406084862	-0.252994269649	1.00749102676	0.455007738749	-2.50641454272	0.965706056434
1	1	1	1	0	0	1	0	1	1	1	1	1	-1.99247782206	1.61513828736	-1.17558796189	0.418013856018	0.0	0.0	-0.0504741032025	0.0	2.17702519634	1.13280186687	-0.249396860164	1.00852154699	0.454978769667	-2.51104208841	0.965698143664
1	1	1	1	0	0	1	1	0	1	1	1	1	-1.9236801777	1.90141125476	-1.21487131315	0.915964333487	0.0	0.0	0.332125181452	0.156155100603	0.0	1.89007734744	-0.378856747275	1.14730843835	0.660155694294	-2.75976746745	0.965468673345
1	1	1	1	0	0	1	1	1	0	1	1	1	-1.94398627576	1.7101713966	-1.1670015516	0.521115427784	0.0	0.0	0.0235236251222	-0.136948353651	2.50631555788	0.0	0.313248726497	0.98313678988	0.552601286227	-2.52168386598	0.96451122822
1	1	1	1	0	0	1	1	1	1	0	1	1	-1.92860710662	1.662265454	-1.1850692077	0.457002939682	0.0	0.0	0.00639093235105	-0.1267487149	2.22982293626	0.742783736405	0.0	0.99610340425	0.480884425527	-2.52441467668	0.965310417952
1	1	1	1	0	0	1	1	1	1	1	0	1	-2.14419025698	1.46657525536	-0.784281757798	0.136770317926	0.0	0.0	-0.112254221933	-0.267149070205	2.92833030597	0.855903222241	-0.0630377546853	0.0	1.41040031972	-2.78489481395	0.963300574467
1	1	1	1	0	0	1	1	1	1	1	1	0	-2.00107695523	1.65881039279	-1.19718235684	0.503217294264	0.0	0.0	0.00610654182855	-0.149346741206	2.3467244484	1.30222886657	-0.317780732438	1.14807928942	0.0	-2.4913017699	0.965816835209
1	1	1	1	0	1	0	1	1	1	1	1	1	-1.91416160811	1.64069892374	-1.1781270445	0.487975039473	0.0	-0.231088299982	0.0	-0.100984791864	2.2345697329	1.12048895702	-0.239080036284	1.00805170608	0.460097948387	-2.47307104172	0.965642754277
1	1	1	1	0	1	0	0	1	1	1	1	1	-1.96514890704	1.63114301705	-1.17734229859	0.466911947756	0.0	-0.236706207205	0.0	0.0	2.22148806741	1.11856808718	-0.235684186807	1.00900703045	0.460082442005	-2.47541736604	0.965484498884
1	1	1	1	0	1	0	1	0	1	1	1	1	-1.78942350056	1.93568689881	-1.21754868601	0.987977637875	0.0	-0.0736108439646	0.0	0.280968884939	0.0	1.91089116025	-0.382557477707	1.14855209424	0.668819750493	-2.75418339815	0.965460760575
1	1	1	1	0	1	0	1	1	0	1	1	1	-1.90693585436	1.72751867685	-1.16747066458	0.572592164485	0.0	-0.251454597311	0.0	-0.0742274145712	2.5527090466	0.0	0.320491240749	0.983795438234	0.556394617257	-2.48481676682	0.964906866701
1	1	1	1	0	1	0	1	1	1	0	1	1	-1.89824574401	1.67851738293	-1.18605075602	0.506089717815	0.0	-0.24454938174	0.0	-0.0736871695021	2.27331586331	0.751192784086	0.0	0.997411969386	0.484651081706	-2.48845334225	0.965128424251
1	1	1	1	0	1	0	1	1	1	1	0	1	-2.15986423139	1.46961088667	-0.778595828289	0.1634255759	0.0	-0.234104051972	0.0	-0.249202746671	2.97117362903	0.837031564012	-0.0451257979748	0.0	1.41441619161	-2.75570087138	0.963751602336
1	1	1	1	0	1	0	1	1	1	1	1	0	-1.97390466422	1.67499495861	-1.19777680211	0.546710026919	0.0	-0.216912976928	0.0	-0.0997161252877	2.38990620764	1.28983504288	-0.304541832276	1.14994412228	0.0	-2.46016759349	0.965777271361
1	1	1	1	0	1	1	0	1	1	1	1	1	-1.96067537952	1.63204970962	-1.17729254211	0.468395507835	0.0	-0.236595519816	-0.00833219873917	0.0	2.22263696351	1.11875994078	-0.235844507672	1.00892154327	0.460179704349	-2.4754561119	0.965484498884
1	1	1	1	0	1	1	0	0	1	1	1	1	-1.85351424303	1.92225658579	-1.21672197652	0.965920953239	0.0	-0.0781746446387	0.395687344416	0.0	0.0	1.89741723523	-0.379974309466	1.14827058063	0.664785983257	-2.74695448367	0.965539888272
1	1	1	1	0	1	1	0	1	0	1	1	1	-1.95918860462	1.71802789328	-1.16678164543	0.551454347264	0.0	-0.257386342767	0.029133311546	0.0	2.53810446354	0.0	0.322605137148	0.984859048472	0.555950681336	-2.48659631998	0.964614094225
1	1	1	1	0	1	1	0	1	1	0	1	1	-1.94143488986	1.67023826874	-1.18536012714	0.48816431823	0.0	-0.249537227599	0.0114141824342	0.0	2.26176288993	0.753757570549	0.0	0.998369524532	0.48425484918	-2.48994694808	0.965096773173
1	1	1	1	0	1	1	0	1	1	1	0	1	-2.20896563338	1.46030703052	-0.776599628747	0.139398748641	0.0	-0.242124381926	-0.149413726019	0.0	2.96158393653	0.836341219725	-0.0402468815766	0.0	1.41592113944	-2.76213219634	0.9636566491
1	1	1	1	0	1	1	0	1	1	1	1	0	-2.02529154368	1.66579673608	-1.19697029601	0.525359227284	0.0	-0.223071647446	0.00257539087042	0.0	2.37653978689	1.28763176703	-0.300995175328	1.150923673	0.0	-2.46257222388	0.965745620282
1	1	1	1	0	1	1	1	0	1	1	1	1	-1.91709300721	1.90858815592	-1.21487651954	0.934837931889	0.0	-0.0873457112724	0.345170647584	0.173831046645	0.0	1.89001457236	-0.374107172991	1.14850159251	0.66365515947	-2.74968565786	0.96535789457
1	1	1	1	0	1	1	1	0	0	1	1	1	-1.9242569273	2.12886997541	-1.17692608058	1.20207441177	0.0	-0.0872115302381	0.491338836023	0.278108213035	0.0	0.0	0.635827861235	1.1373526132	0.908687231785	-2.87124178646	0.963063191378
1	1	1	1	0	1	1	1	0	1	0	1	1	-1.89976946797	1.97054317079	-1.2210047727	0.968979338911	0.0	-0.106997692217	0.377726432185	0.220359352222	0.0	1.33127272244	0.0	1.13664711612	0.709310519582	-2.79072249898	0.964669483613
1	1	1	1	0	1	1	1	0	1	1	0	1	-2.15952827925	1.82277204025	-0.771950733553	0.753514136578	0.0	-0.0141958786101	0.344485351339	0.142563585125	0.0	1.80750959528	-0.202462496661	0.0	1.90066736928	-3.14965682061	0.963640823561
1	1	1	1	0	1	1	1	0	1	1	1	0	-2.00959576927	1.98459678401	-1.23751741538	1.05914769215	0.0	-0.0542863700703	0.398381170727	0.199831800443	0.0	2.22896961655	-0.485244761929	1.37800653027	0.0	-2.77479759611	0.966331165234
1	1	1	1	0	1	1	1	1	0	1	1	1	-1.92675055132	1.72406409194	-1.1673886821	0.565564058056	0.0	-0.253558512836	0.0543093649649	-0.0898487169331	2.54637087434	0.0	0.320744317072	0.9841865647	0.556074669526	-2.48450630012	0.964843564544
1	1	1	1	0	1	1	1	1	0	0	1	1	-1.98747574508	1.67095148217	-1.0954981167	0.622149782784	0.0	-0.212692550906	0.0318283337886	-0.201664607706	2.93070417808	0.0	0.0	0.998648920903	0.608853691579	-2.42147802681	0.964867302853
1	1	1	1	0	1	1	1	1	0	1	0	1	-2.12719453783	1.5434045279	-0.779971491727	0.244284201954	0.0	-0.252326914197	-0.0568218052554	-0.208437421501	3.19924518048	0.0	0.374415048195	0.0	1.4730947215	-2.76392475595	0.963427178781
1	1	1	1	0	1	1	1	1	0	1	1	0	-2.00701029056	1.78058217535	-1.19014738465	0.653229642129	0.0	-0.244478273208	0.0757272254303	-0.0860732075673	2.79670386041	0.0	0.34888714215	1.15904080538	0.0	-2.47582419353	0.964360885597
1	1	1	1	0	1	1	1	1	1	0	1	1	-1.91234655376	1.67536073112	-1.18589835693	0.501184528632	0.0	-0.245195822564	0.0351978771573	-0.083214827586	2.27135624139	0.750433171363	0.0	0.997427196508	0.484566839673	-2.48802470367	0.965049296555
1	1	1	1	0	1	1	1	1	1	0	0	1	-2.12488067595	1.48214836473	-0.780271309427	0.177896684829	0.0	-0.234582104965	-0.0835158277531	-0.218924374983	2.98548348128	0.767713433249	0.0	0.0	1.41750504163	-2.75909654816	0.963704125718
1	1	1	1	0	1	1	1	1	1	0	1	0	-1.97906714473	1.7220643276	-1.21065479632	0.567227863047	0.0	-0.235815073627	0.0527692616276	-0.0763926913183	2.44576224407	0.824018893763	0.0	1.14651520498	0.0	-2.47795009855	0.965207551947
1	1	1	1	0	1	1	1	1	1	1	0	1	-2.12789283096	1.47526624809	-0.778544562808	0.174440587038	0.0	-0.231515473267	-0.0865989281979	-0.223692104224	2.9797687489	0.839427303582	-0.046629612263	0.0	1.41438334781	-2.75636413352	0.963704125718
1	1	1	1	0	1	1	1	1	1	1	0	0	-2.53319951487	1.49312669217	-0.570667437085	0.232012835724	0.0	-0.190877670373	-0.0766622026724	-0.30594187068	4.09824043696	1.46317421968	-0.213594112024	0.0	0.0	-2.95323528859	0.962920761525
1	1	1	1	0	1	1	1	1	1	1	1	0	-1.98603442893	1.6738281937	-1.1968017482	0.542220715726	0.0	-0.217995433453	0.0327102320832	-0.110071614279	2.38772300296	1.2893334873	-0.304452757352	1.14984398217	0.0	-2.46141107212	0.96578518413
1	1	1	1	1	0	1	1	1	1	1	1	1	-1.95305446859	1.63765241328	-1.15201433905	0.438879610542	-0.185018837249	0.0	-0.0230028218614	-0.172189912979	2.16944731234	1.1414488765	-0.261230419886	1.00533882456	0.45415927592	-2.45386386599	0.965713969203
1	1	1	1	1	0	0	1	1	1	1	1	1	-1.96255172127	1.63404922439	-1.15236810649	0.434655848053	-0.181644265198	0.0	0.0	-0.175464340629	2.16731596482	1.14166032761	-0.261129012077	1.00552681567	0.45403583963	-2.45391172534	0.965824747978
1	1	1	1	1	0	0	0	1	1	1	1	1	-2.05128239622	1.61677954	-1.15220159783	0.396254131057	-0.171514478132	0.0	0.0	0.0	2.14362336533	1.13832003309	-0.255265532169	1.00735750369	0.453694839507	-2.46265881671	0.965801009669
1	1	1	1	1	0	0	1	0	1	1	1	1	-1.84771993203	1.94300707237	-1.17016629751	0.944637214323	-0.371916221601	0.0	0.0	0.206271543014	0.0	1.9042462071	-0.39836122954	1.14076361642	0.657898293363	-2.64602983726	0.965895962905
1	1	1	1	1	0	0	1	1	0	1	1	1	-1.9548910672	1.72018762977	-1.14707913014	0.519692583987	-0.154817398189	0.0	0.0	-0.148763496356	2.48988046837	0.0	0.309628526667	0.981299963833	0.553046039791	-2.47744332821	0.964788175157
1	1	1	1	1	0	0	1	1	1	0	1	1	-1.94616755884	1.67212149213	-1.16362021416	0.45195797885	-0.16304610534	0.0	0.0	-0.1446947821	2.21080182421	0.738194682428	0.0	0.993957394192	0.480670426265	-2.47787048433	0.965334156261
1	1	1	1	1	0	0	1	1	1	1	0	1	-2.21572784312	1.47454305636	-0.75591442554	0.113866201047	-0.249603644221	0.0	0.0	-0.33003167782	2.8738468756	0.867786636885	-0.0748754978227	0.0	1.40801105336	-2.70897990872	0.963617085252
1	1	1	1	1	0	0	1	1	1	1	1	0	-2.02229682371	1.6699562391	-1.17403387358	0.499683000431	-0.185275412901	0.0	0.0	-0.171811122425	2.32159860238	1.31100563105	-0.326828192561	1.14605517848	0.0	-2.43852117953	0.966054218297
1	1	1	1	1	0	1	0	1	1	1	1	1	-2.01602000053	1.62363109828	-1.15217437192	0.40971986788	-0.174770227807	0.0	-0.0684927768687	0.0	2.15379701608	1.14024155474	-0.256972368161	1.00667303526	0.454109411581	-2.46111295978	0.965824747978
1	1	1	1	1	0	1	0	0	1	1	1	1	-1.91719117819	1.9274147144	-1.17021197536	0.917738638325	-0.365272252564	0.0	0.332361253424	0.0	0.0	1.89104879133	-0.394903191139	1.14060517822	0.654094821487	-2.6428226898	0.966259950308
1	1	1	1	1	0	1	0	1	0	1	1	1	-2.01464720215	1.70861800759	-1.146850844	0.492896303495	-0.148136019358	0.0	-0.0306536549215	0.0	2.47405784756	0.0	0.31276472098	0.982480484027	0.552764874249	-2.48405329692	0.964447926063
1	1	1	1	1	0	1	0	1	1	0	1	1	-1.99607089606	1.66194397577	-1.16344571635	0.429051982505	-0.156940865757	0.0	-0.0459658953731	0.0	2.19732060952	0.742461598947	0.0	0.995186841119	0.480321674296	-2.48372257673	0.965349981801
1	1	1	1	1	0	1	0	1	1	1	0	1	-2.27445763942	1.46263968165	-0.755245066401	0.0835412335046	-0.239215089281	0.0	-0.21165628945	0.0	2.86260253714	0.868136658565	-0.0693040279512	0.0	1.40968006301	-2.72211974194	0.963268923389
1	1	1	1	1	0	1	0	1	1	1	1	0	-2.07830298945	1.65990437463	-1.17207112136	0.473206304831	-0.177419081055	0.0	-0.0594659131926	0.0	2.30740709227	1.30970260008	-0.322720788782	1.14712958627	0.0	-2.44825355442	0.965808922439
1	1	1	1	1	0	1	1	0	1	1	1	1	-1.95685189915	1.91798537723	-1.17194534583	0.897568662674	-0.357813192276	0.0	0.29844309308	0.111737948733	0.0	1.88437903747	-0.390053632875	1.14087433548	0.65365092957	-2.64598613795	0.966252037538
1	1	1	1	1	0	1	1	0	0	1	1	1	-1.96652659352	2.13707690284	-1.13158528689	1.16225714745	-0.371678246362	0.0	0.443151430579	0.216087553652	0.0	0.0	0.616585363189	1.12894495402	0.897474600793	-2.76234716495	0.963537957556
1	1	1	1	1	0	1	1	0	1	0	1	1	-1.93942035365	1.97942255681	-1.17804557723	0.929338132991	-0.337430961784	0.0	0.331639725884	0.159220238477	0.0	1.29998493985	0.0	1.12798579896	0.701474088498	-2.69824537086	0.964875215623
1	1	1	1	1	0	1	1	0	1	1	0	1	-2.21651104505	1.8568993757	-0.724458115609	0.728093946319	-0.520883149128	0.0	0.29550437318	0.0787637175258	0.0	1.80937042071	-0.224478483309	0.0	1.86743927388	-2.97607364563	0.963712038488
1	1	1	1	1	0	1	1	0	1	1	1	0	-2.04897632744	1.99611725808	-1.1878367113	1.02466685492	-0.388853994876	0.0	0.352777730352	0.140849955595	0.0	2.21882190687	-0.499694646695	1.36670957556	0.0	-2.65789489725	0.967826678694
1	1	1	1	1	0	1	1	1	0	1	1	1	-1.95893919788	1.71911034075	-1.14742781292	0.518431357093	-0.153802432478	0.0	0.012105678464	-0.153500370444	2.48937588159	0.0	0.309512234929	0.980964845833	0.553712788381	-2.47759145326	0.964780262387
1	1	1	1	1	0	1	1	1	0	0	1	1	-2.01791757762	1.6534968828	-1.06778063539	0.575049402893	-0.186277948983	0.0	0.0194775805285	-0.265408836308	2.85259586108	0.0	0.0	0.995014507544	0.615567742136	-2.40120326402	0.965001819937
1	1	1	1	1	0	1	1	1	0	1	0	1	-2.1668293521	1.54909123221	-0.766016193863	0.202341887725	-0.221889395691	0.0	-0.096277633262	-0.277068603691	3.11532306557	0.0	0.361165977347	0.0	1.46994994868	-2.7262582597	0.963284748928
1	1	1	1	1	0	1	1	1	0	1	1	0	-2.03436192509	1.76550795505	-1.17297211351	0.610232712889	-0.1353200909	0.0	0.0513346723903	-0.152731920883	2.73150720247	0.0	0.343533528532	1.15789615635	0.0	-2.4737719256	0.964606181456
1	1	1	1	1	0	1	1	1	1	0	1	1	-1.94417723138	1.67234839417	-1.16353608695	0.45246850426	-0.162923483755	0.0	-0.00521609054774	-0.142853073591	2.21113032852	0.738257980244	0.0	0.993907766657	0.480837363936	-2.4779028576	0.965318330722
1	1	1	1	1	0	1	1	1	1	0	0	1	-2.16405278025	1.49532710756	-0.761984910759	0.137755374665	-0.246241742433	0.0	-0.122869799903	-0.284481823261	2.89560297881	0.753320723548	0.0	0.0	1.4130614615	-2.71495937078	0.963585434174
1	1	1	1	1	0	1	1	1	1	0	1	0	-2.0113973436	1.71987933693	-1.19162353001	0.525341742297	-0.16002168417	0.0	0.0137991742679	-0.134715968019	2.38546314292	0.812196287606	0.0	1.14276740879	0.0	-2.46870700891	0.965452847806
1	1	1	1	1	0	1	1	1	1	1	0	1	-2.16810142318	1.48386191844	-0.75704972307	0.132421669834	-0.251914037957	0.0	-0.128374566367	-0.293472404455	2.8877734605	0.872384139642	-0.0776320073703	0.0	1.40779817541	-2.70857935703	0.963712038488
1	1	1	1	1	0	1	1	1	1	1	0	0	-2.57517574864	1.49746979515	-0.54781483736	0.200311285875	-0.291238205833	0.0	-0.108610872227	-0.368077481528	3.99197376731	1.50355169638	-0.241209415018	0.0	0.0	-2.89144984121	0.963181882923
1	1	1	1	1	0	1	1	1	1	1	1	0	-2.01994910271	1.67086067359	-1.17344578587	0.500436911806	-0.186118161075	0.0	-0.00815725302413	-0.169236479439	2.32320558565	1.31140360694	-0.327223000805	1.14585750759	0.0	-2.43898358561	0.966054218297
1	1	1	1	1	1	0	1	1	1	1	1	1	-1.96154085336	1.70415168052	-1.08173050329	0.532725251273	-0.728544282451	-0.607869047037	0.0	-0.107888969163	2.20951128735	1.12690967288	-0.24831387661	1.00105515625	0.464095683459	-2.20832053341	0.966924622957
1	1	1	1	1	1	0	0	1	1	1	1	1	-2.01567109403	1.69453928367	-1.08129367113	0.51069197799	-0.727728873215	-0.614262276208	0.0	0.0	2.19526582165	1.12470344355	-0.244518180662	1.00223454665	0.463892867224	-2.21118123994	0.966829669721
1	1	1	1	1	1	0	0	0	1	1	1	1	-1.70495198628	2.03732722321	-1.11762239841	1.10080666088	-0.834616296159	-0.490329857658	0.0	0.0	0.0	1.91941408538	-0.399890341854	1.13933058973	0.672244680776	-2.43684943198	0.966560635554
1	1	1	1	1	1	0	0	1	0	1	1	1	-1.99414475808	1.78336846091	-1.07280453371	0.601269987025	-0.717310477664	-0.628818887123	0.0	0.0	2.51899785271	0.0	0.31677339037	0.977672898459	0.560962374902	-2.22611060847	0.966252037538
1	1	1	1	1	1	0	0	1	1	0	1	1	-1.98502275395	1.734208346	-1.09089517883	0.534807456841	-0.718886110746	-0.621888894694	0.0	0.0	2.23986876766	0.746078549584	0.0	0.990959362614	0.489381747445	-2.2291892008	0.966616024941
1	1	1	1	1	1	0	0	1	1	1	0	1	-2.34194018439	1.52591372226	-0.67180371542	0.167004222956	-0.851784722769	-0.692634576616	0.0	0.0	2.90028909517	0.841252786345	-0.0484664075425	0.0	1.41305684272	-2.44632398028	0.965270854104
1	1	1	1	1	1	0	0	1	1	1	1	0	-2.07560668491	1.72877334245	-1.10360531448	0.570612159179	-0.716301017293	-0.59483648958	0.0	0.0	2.35336262	1.29670030645	-0.3116225777	1.14510414644	0.0	-2.20174471152	0.96705914004
1	1	1	1	1	1	0	1	0	1	1	1	1	-1.8452103289	2.00737285596	-1.11425383353	1.03458259001	-0.831018434031	-0.507651970491	0.0	0.269641807648	0.0	1.90219495613	-0.388150751249	1.13986075692	0.668725198797	-2.44194739439	0.966536897245
1	1	1	1	1	1	0	1	0	0	1	1	1	-1.79867809826	2.24391321585	-1.07509921463	1.32888036044	-0.853073937015	-0.513075498261	0.0	0.419687310426	0.0	0.0	0.62928810033	1.12752638838	0.918792933321	-2.55741435508	0.96344300432
1	1	1	1	1	1	0	1	0	1	0	1	1	-1.81261464408	2.07295087803	-1.1222382673	1.07489402796	-0.822837537466	-0.522552231008	0.0	0.327217722959	0.0	1.32357248087	0.0	1.12779053273	0.716631383193	-2.48719875723	0.965199639178
1	1	1	1	1	1	0	1	0	1	1	0	1	-2.09887678448	1.94454406558	-0.659821094989	0.867626181098	-1.0130383476	-0.533362702868	0.0	0.235194088631	0.0	1.82470616814	-0.222719662722	0.0	1.88784144102	-2.76417545932	0.964321321749
1	1	1	1	1	1	0	1	0	1	1	1	0	-1.91807901535	2.08841548291	-1.13700388168	1.16857241566	-0.831252360932	-0.47231906506	0.0	0.311529123712	0.0	2.24756217483	-0.501610755764	1.37116718052	0.0	-2.46830004262	0.968277706563
1	1	1	1	1	1	0	1	1	0	1	1	1	-1.95342759176	1.79093565452	-1.07327994048	0.618539344483	-0.718337537232	-0.623801996939	0.0	-0.0818089591001	2.53042994746	0.0	0.314768418658	0.977073200049	0.560449823519	-2.22390358038	0.966323252465
1	1	1	1	1	1	0	1	1	0	0	1	1	-2.02089469372	1.73809755118	-0.998542255108	0.674023139793	-0.750892969364	-0.60560599831	0.0	-0.196056040277	2.90081889464	0.0	0.0	0.99113550783	0.614784273557	-2.14810782893	0.966465682318
1	1	1	1	1	1	0	1	1	0	1	0	1	-2.20025469738	1.61832356412	-0.6799918571	0.29489730757	-0.84141391207	-0.693213614481	0.0	-0.228843976827	3.1555197342	0.0	0.367540943936	0.0	1.47116929667	-2.44875134248	0.964906866701
1	1	1	1	1	1	0	1	1	0	1	1	0	-2.0262856291	1.85045258785	-1.10451089682	0.712310092183	-0.699883980105	-0.606104482509	0.0	-0.068653588132	2.77923491771	0.0	0.343886189919	1.15408569319	0.0	-2.2180700111	0.966252037538
1	1	1	1	1	1	0	1	1	1	0	1	1	-1.94574716749	1.74179294743	-1.09168818297	0.550970537757	-0.718858389112	-0.617244290533	0.0	-0.0777658425526	2.25103180999	0.743374568813	0.0	0.990045081826	0.489665705394	-2.22744403999	0.966568548323
1	1	1	1	1	1	0	1	1	1	0	0	1	-2.20779137742	1.55852590708	-0.677553794925	0.226227901816	-0.850900120661	-0.680431655999	0.0	-0.247933001573	2.93857327661	0.75791702764	0.0	0.0	1.41524392217	-2.4429676157	0.965381632879
1	1	1	1	1	1	0	1	1	1	0	1	0	-2.00571571751	1.78933810408	-1.11926815445	0.620848987137	-0.703716279915	-0.599964171034	0.0	-0.0680515732301	2.43297859831	0.816790637052	0.0	1.14038000035	0.0	-2.22314408868	0.966782193103
1	1	1	1	1	1	0	1	1	1	1	0	1	-2.21307403565	1.5496574804	-0.674863816098	0.221203332168	-0.853408732933	-0.677998469333	0.0	-0.254802018694	2.9309708111	0.847437019235	-0.0579434304525	0.0	1.41107334737	-2.43867061929	0.965421196727
1	1	1	1	1	1	0	1	1	1	1	0	0	-2.61614702804	1.57321919566	-0.477223919626	0.285640864722	-0.90362358881	-0.668752524434	0.0	-0.331365604554	4.04489475004	1.46915856687	-0.225202052428	0.0	0.0	-2.59986176241	0.965041383785
1	1	1	1	1	1	0	1	1	1	1	1	0	-2.02254772562	1.73922327677	-1.10462910021	0.593019116094	-0.717200011873	-0.588937188244	0.0	-0.106416821967	2.36749877861	1.29889691151	-0.315367019647	1.14402201359	0.0	-2.19918334764	0.966987925114
1	1	1	1	1	1	1	0	1	1	1	1	1	-2.00722183524	1.6963032055	-1.08130764063	0.513748356143	-0.72791661723	-0.613316219875	-0.0171869030582	0.0	2.19821769044	1.12530510985	-0.245115359364	1.00192985601	0.464065237448	-2.21128664635	0.966821756951
1	1	1	1	1	1	1	0	0	1	1	1	1	-1.9075445817	1.9938085385	-1.11322425976	1.01279438663	-0.829361397676	-0.511205746596	0.381555704758	0.0	0.0	1.88955614984	-0.38584128258	1.13965923316	0.664637453245	-2.4357316321	0.966790105873
1	1	1	1	1	1	1	0	0	0	1	1	1	-1.87844676858	2.22456807777	-1.07452255212	1.29953606663	-0.850033186951	-0.516774984012	0.559726223037	0.0	0.0	0.0	0.622624005681	1.12774302625	0.911019042987	-2.54721185973	0.964044374812
1	1	1	1	1	1	1	0	0	1	0	1	1	-1.87141862225	2.06024954221	-1.12205602045	1.05584508336	-0.820633080942	-0.524683389554	0.430440439909	0.0	0.0	1.31297707445	0.0	1.127442851	0.712444523966	-2.47945416973	0.965460760575
1	1	1	1	1	1	1	0	0	1	1	0	1	-2.17330068117	1.9282604734	-0.659958133021	0.84006145635	-1.01014802768	-0.537932220077	0.37023734602	0.0	0.0	1.81086068335	-0.219743401686	0.0	1.88410452385	-2.75769989707	0.96451122822
1	1	1	1	1	1	1	0	0	1	1	1	0	-1.99117189717	2.07174842052	-1.13665823171	1.14167313074	-0.828396821327	-0.476373160789	0.443777017939	0.0	0.0	2.22988999668	-0.49772926345	1.36942876892	0.0	-2.46053803751	0.968752472741
1	1	1	1	1	1	1	0	1	0	1	1	1	-2.00505145239	1.78147781113	-1.07285342707	0.597335362302	-0.717230842648	-0.629629143432	0.0204267214358	0.0	2.51620615794	0.0	0.316860848277	0.977478193531	0.561565054613	-2.22626597751	0.966291601386
1	1	1	1	1	1	1	0	1	0	0	1	1	-2.10782315799	1.72147650069	-0.996214750844	0.638218337244	-0.750139566584	-0.615359886886	-0.027009578693	0.0	2.88469737832	0.0	0.0	0.992925786945	0.615057485959	-2.15224754058	0.966505246166
1	1	1	1	1	1	1	0	1	0	1	0	1	-2.25392616862	1.60801753496	-0.678062930007	0.269459524333	-0.841014899601	-0.701092472491	-0.120600717491	0.0	3.14421593872	0.0	0.37195572932	0.0	1.47228655227	-2.45475790017	0.964677396382
1	1	1	1	1	1	1	0	1	0	1	1	0	-2.08438682541	1.83927660127	-1.10303271556	0.688225688735	-0.699180785172	-0.612017216976	0.0460353356883	0.0	2.76388379028	0.0	0.345764342028	1.15490826098	0.0	-2.22039614241	0.966244124769
1	1	1	1	1	1	1	0	1	1	0	1	1	-1.98758721244	1.73446719716	-1.09128698691	0.533727628018	-0.718434927453	-0.621868435647	0.00486091184627	0.0	2.23916375923	0.746095743846	0.0	0.991031204355	0.489306299093	-2.22948225945	0.966663501559
1	1	1	1	1	1	1	0	1	1	0	0	1	-2.2557214002	1.54924950917	-0.675090183323	0.202701366208	-0.851128416117	-0.688081376848	-0.152673633872	0.0	2.9296707302	0.764545290819	0.0	0.0	1.41609606223	-2.44963727591	0.965381632879
1	1	1	1	1	1	1	0	1	1	0	1	0	-2.05153891354	1.78024609078	-1.11837736367	0.601673748459	-0.703022620607	-0.604757552845	0.0225261402798	0.0	2.42025110162	0.819249193793	0.0	1.14124275472	0.0	-2.22473733975	0.966726803716
1	1	1	1	1	1	1	0	1	1	1	0	1	-2.26126844231	1.54048317608	-0.672911558278	0.197382457534	-0.853141986579	-0.685869311246	-0.15671132594	0.0	2.9218423808	0.846741813068	-0.053013815266	0.0	1.41260243165	-2.4453178986	0.96537372011
1	1	1	1	1	1	1	0	1	1	1	0	0	-2.69769328692	1.5580904661	-0.472518190221	0.247210398711	-0.903424715407	-0.68032397578	-0.167838565481	0.0	4.02907202259	1.46713791495	-0.21758589997	0.0	0.0	-2.60973874737	0.964748611309
1	1	1	1	1	1	1	0	1	1	1	1	0	-2.07263523495	1.72925824558	-1.10363479088	0.571489070975	-0.716182695659	-0.594456981578	-0.00551480245507	0.0	2.3540667489	1.29676858952	-0.311683418798	1.14508400651	0.0	-2.20170956183	0.967027488962
1	1	1	1	1	1	1	1	0	1	1	1	1	-1.96810889099	1.98103451939	-1.11193839087	0.98334353729	-0.827862432317	-0.51927425362	0.333931868963	0.165226747269	0.0	1.88252952379	-0.380203574348	1.13987322114	0.663589984329	-2.43912542456	0.96685340803
1	1	1	1	1	1	1	1	0	0	1	1	1	-1.97566372466	2.2004801071	-1.07511407669	1.25083649968	-0.846687894435	-0.529142196511	0.479277849201	0.268300681761	0.0	0.0	0.625627056134	1.12856025202	0.907386156334	-2.54854153461	0.964250106822
1	1	1	1	1	1	1	1	0	0	0	1	1	-2.12107730238	2.22401652955	-0.907980724633	1.61013039432	-0.965264511222	-0.468161457386	0.570894779691	0.15085514522	0.0	0.0	0.0	1.20094724112	1.1725913586	-2.47610324546	0.963102755226
1	1	1	1	1	1	1	1	0	0	1	0	1	-2.22870569162	2.1212305276	-0.622534642753	1.07610654947	-1.02208536035	-0.559295245414	0.470524434144	0.236803034249	0.0	0.0	0.74064604256	0.0	2.1192524274	-2.86143867274	0.963617085252
1	1	1	1	1	1	1	1	0	0	1	1	0	-2.1108666422	2.36689201267	-1.09151787751	1.50033914118	-0.854117790465	-0.482755377242	0.595680555953	0.33285841634	0.0	0.0	0.729720115896	1.46671270699	0.0	-2.62308650972	0.966275775847
1	1	1	1	1	1	1	1	0	1	0	1	1	-1.95029437094	2.04291525296	-1.11927875284	1.01706901114	-0.819267659358	-0.53492744091	0.367437091395	0.213161009326	0.0	1.31490940814	0.0	1.12777438461	0.710299493967	-2.48378774182	0.965563626581
1	1	1	1	1	1	1	1	0	1	0	0	1	-2.21478802925	1.95317285735	-0.668489735842	0.839615929824	-1.00160933584	-0.549845229616	0.350751022833	0.162124548405	0.0	1.48031737207	0.0	0.0	1.90124822344	-2.78095255876	0.964155153587
1	1	1	1	1	1	1	1	0	1	0	1	0	-2.04091351685	2.14357587305	-1.14908891296	1.16185275072	-0.815847859674	-0.504592260702	0.435730905914	0.255532462217	0.0	1.50809341502	0.0	1.37687565902	0.0	-2.52585259577	0.967193657124
1	1	1	1	1	1	1	1	0	1	1	0	1	-2.222301377	1.91758626567	-0.658382998734	0.816301668952	-1.00881790656	-0.544725890431	0.331776904116	0.133653092029	0.0	1.8049487807	-0.215240024084	0.0	1.88363047077	-2.76046278022	0.964416274985
1	1	1	1	1	1	1	1	0	1	1	0	0	-2.90595208252	2.12919080126	-0.290646317855	1.2914118004	-1.20083320723	-0.432716840809	0.578532333569	0.219931339058	0.0	3.34658521627	-0.599443918962	0.0	0.0	-3.22550201218	0.967074965579
1	1	1	1	1	1	1	1	0	1	1	1	0	-2.06122623048	2.05614572061	-1.13473295806	1.10699279227	-0.826669005736	-0.485656479641	0.387512304066	0.19238206341	0.0	2.22161437026	-0.49133604212	1.36928440076	0.0	-2.46412010493	0.968776211049
1	1	1	1	1	1	1	1	1	0	1	1	1	-1.97109594785	1.78800194488	-1.07349947687	0.611999885619	-0.717481881541	-0.625621021901	0.047662954855	-0.0944201906069	2.52430299048	0.0	0.315038397472	0.977166919987	0.560959768593	-2.22393257163	0.966291601386
1	1	1	1	1	1	1	1	1	0	0	1	1	-2.03230808758	1.73668618783	-0.998750794078	0.670165285447	-0.750851199355	-0.605922277613	0.0297812830702	-0.204842480218	2.89773937002	0.0	0.0	0.991378589221	0.614127281773	-2.14803658704	0.966489420627
1	1	1	1	1	1	1	1	1	0	0	0	1	-2.250376511	1.55756447828	-0.572334502271	0.367206883339	-0.892481331723	-0.679063069723	-0.0785565747719	-0.340250221927	3.59905192308	0.0	0.0	0.0	1.5615201793	-2.37717209752	0.964819826236
1	1	1	1	1	1	1	1	1	0	0	1	0	-2.11047944888	1.72866912445	-0.984659972677	0.751365394829	-0.728595309205	-0.611931187909	0.114143082574	-0.222827938975	3.21455264909	0.0	0.0	1.20652581762	0.0	-2.13803181159	0.966766367564
1	1	1	1	1	1	1	1	1	0	1	0	1	-2.17754287358	1.6222461937	-0.680274905495	0.303154406509	-0.841701712662	-0.691700671353	-0.0614264478683	-0.21080059038	3.16230158119	0.0	0.367447396873	0.0	1.47110522617	-2.44884413024	0.964962256089
1	1	1	1	1	1	1	1	1	0	1	0	0	-2.6005501622	1.63587856634	-0.425749030037	0.413980827872	-0.877376040661	-0.736028745996	0.013789128662	-0.269993458101	4.51142894692	0.0	0.571522675394	0.0	0.0	-2.66568166279	0.964455838833
1	1	1	1	1	1	1	1	1	0	1	1	0	-2.05184470911	1.84564248163	-1.10397848974	0.702769721674	-0.699625608133	-0.608143358271	0.0707954556568	-0.0896225318478	2.77126633166	0.0	0.344158124046	1.15440817063	0.0	-2.21817759262	0.966410292931
1	1	1	1	1	1	1	1	1	1	0	1	1	-1.95603116009	1.74023630701	-1.09156193981	0.547729881967	-0.718794913868	-0.618397386148	0.0286619022501	-0.0872436079447	2.24913607287	0.742958708556	0.0	0.990130629442	0.489466318937	-2.22761172124	0.966616024941
1	1	1	1	1	1	1	1	1	1	0	0	1	-2.17461977632	1.56484941836	-0.677402293391	0.238080399208	-0.851633855417	-0.678282552377	-0.0894545961001	-0.22207684314	2.94828087294	0.758092136328	0.0	0.0	1.41495799881	-2.44377690252	0.965262941335
1	1	1	1	1	1	1	1	1	1	0	0	0	-2.58085384101	1.61324948235	-0.487783708573	0.320696585706	-0.894021750087	-0.678039641496	-0.0689118015957	-0.282099268352	4.09854183351	1.12465898669	0.0	0.0	0.0	-2.62051407483	0.964914779471
1	1	1	1	1	1	1	1	1	1	0	1	0	-2.02285447702	1.78652873635	-1.11932393844	0.614487309302	-0.703372306389	-0.60109379432	0.0461364966629	-0.0808992603809	2.42729303258	0.816901498007	0.0	1.14068347631	0.0	-2.22302575381	0.96684549526
1	1	1	1	1	1	1	1	1	1	1	0	1	-2.17879752986	1.55575719887	-0.675181169628	0.233520471744	-0.854046699097	-0.675527872935	-0.093158490343	-0.227765750783	2.94052503315	0.850087811632	-0.059665676347	0.0	1.41100950264	-2.43887789403	0.965278766874
1	1	1	1	1	1	1	1	1	1	1	0	0	-2.58583504742	1.57849590497	-0.476917532706	0.296705426587	-0.904445755026	-0.666834080718	-0.0818567342138	-0.307741377933	4.05295241759	1.471793121	-0.226516395317	0.0	0.0	-2.60085733834	0.964954343319
1	1	1	1	1	1	1	1	1	1	1	1	0	-2.0318682583	1.73754096775	-1.1037954221	0.589201011662	-0.717215053722	-0.589760030165	0.0258836437473	-0.113785013454	2.36464951095	1.29817811706	-0.314874817587	1.14413432528	0.0	-2.19960112186	0.966916710187
